
\data\
ngram 1=19728
ngram 2=142829

\1-grams:
-2.676494	"	-99
-4.204921	%	-7.959944
-2.666888	(	-99
-2.338694	)	-7.430625
-4.925081	*	-99
-5.895117	+	-7.681582
-1.303178	,	-8.289217
-4.974298	-	-7.34117
-1.755427	.	-7.602441
-5.22611	...	-99
-6.372239	................	-99
-6.372239	..................	-99
-4.992027	.550	-99
-5.293057	.551	-99
-5.293057	.552	-99
-5.029816	.553	-99
-5.673269	.554	-99
-5.594088	.555	-99
-5.469149	.556	-99
-4.974298	.560	-99
-5.330846	.561	-99
-5.116966	.562	-99
-5.010511	.563	-99
-5.770179	.564	-99
-5.594088	.565	-99
-5.372239	.566	-99
-4.925081	.570	-99
-4.728786	.571	-99
-5.093485	.572	-99
-4.974298	.573	-99
-5.770179	.574	-99
-5.770179	.575	-99
-5.673269	.576	-99
-5.196147	.580	-99
-4.815936	.581	-99
-5.168118	.582	-99
-5.010511	.583	-99
-6.071208	.584	-99
-5.594088	.585	-99
-5.469149	.586	-99
-5.071208	.590	-99
-4.728786	.591	-99
-5.071208	.592	-99
-5.050019	.593	-99
-5.770179	.594	-99
-6.071208	.595	-99
-5.372239	.596	-99
-5.22611	.600	-99
-4.73877	.601	-99
-5.14179	.602	-99
-5.14179	.603	-99
-5.770179	.604	-99
-5.527141	.605	-99
-5.895117	.606	-99
-5.116966	.610	-99
-4.74899	.611	-99
-5.116966	.612	-99
-5.168118	.613	-99
-5.673269	.614	-99
-5.770179	.615	-99
-5.527141	.616	-99
-5.22611	.620	-99
-4.909841	.621	-99
-5.093485	.622	-99
-5.093485	.623	-99
-5.673269	.624	-99
-5.594088	.625	-99
-5.527141	.626	-99
-1.977822	/	-7.630676
-5.594088	0,001	-99
-6.071208	0,01	-99
-6.372239	0,026	-99
-6.372239	0,4	-99
-6.071208	0,5	-7.481778
-5.770179	0,75	-99
-6.372239	0,969	-99
-6.372239	001	-99
-5.895117	03	-99
-2.808995	1	-7.992255
-6.372239	1,0	-99
-6.372239	1,274	-99
-6.372239	1,4	-99
-6.071208	1,5	-99
-6.372239	1,7	-99
-6.372239	1,75	-99
-6.372239	1-b	-99
-5.770179	1.000	-7.480871
-6.372239	1.020.000	-99
-5.770179	1.025.092	-99
-6.372239	1.050.000	-99
-6.372239	1.079.000	-99
-6.372239	1.114.100	-99
-6.372239	1.12	-99
-6.372239	1.140.446	-99
-6.372239	1.149.200	-99
-6.372239	1.15	-99
-6.071208	1.2	-7.464264
-6.372239	1.21	-99
-6.372239	1.213.381.487	-99
-6.372239	1.250	-99
-6.372239	1.26	-99
-6.071208	1.275.653.700	-99
-6.372239	1.277.600	-99
-6.372239	1.286.710.550	-99
-6.071208	1.3	-7.45288
-6.372239	1.312.589.350	-99
-6.372239	1.34	-99
-6.372239	1.413.400	-99
-6.372239	1.421.600	-99
-6.372239	1.540.000	-99
-6.372239	1.569.031.566	-99
-6.372239	1.574.900	-99
-6.372239	1.635.000	-99
-6.372239	1.649.331.800	-99
-6.372239	1.7	-99
-6.372239	1.700	-99
-6.372239	1.712.700	-99
-6.372239	1.842.200	-99
-6.372239	1.858.600	-99
-6.372239	1.876,7	-99
-6.372239	1.9	-99
-6.372239	1.924.840.250	-99
-6.372239	1.998.234.600	-99
-6.372239	1.b	-99
-3.214178	10	-99
-6.372239	10,2	-99
-6.071208	10,3	-99
-6.372239	10,5	-99
-5.895117	10.00	-99
-5.895117	10.000	-99
-6.372239	10.1	-99
-6.372239	10.14	-99
-6.372239	10.2	-99
-6.071208	10.292.650	-99
-6.372239	10.376.100	-99
-6.071208	10.4	-7.470271
-6.372239	10.5	-99
-6.372239	10.511.100	-99
-6.071208	10.718.300	-99
-6.372239	10.8	-99
-4.480144	100	-7.330579
-6.372239	100.000	-99
-5.469149	1001	-99
-6.071208	1002-s	-99
-6.071208	1003	-99
-6.372239	1009	-99
-6.372239	1009-s	-99
-6.372239	100a	-99
-4.52098	101	-99
-6.372239	101ª	-99
-4.682043	102	-99
-6.071208	1023	-99
-5.895117	1024	-99
-5.417996	1026-s	-99
-6.372239	1028	-99
-4.759455	103	-7.998426
-6.372239	103.3	-99
-5.895117	1037	-99
-4.647963	104	-7.847787
-6.372239	104,4	-99
-6.372239	104.100	-99
-6.372239	104.461.100	-99
-6.071208	104.7	-7.471377
-6.372239	1043	-99
-4.647963	10485	-99
-6.372239	104ª	-99
-4.503007	105	-7.991797
-6.372239	105,5	-99
-6.372239	105.200	-99
-6.372239	105.4	-99
-6.071208	105.6	-99
-6.372239	1050	-99
-5.770179	1052	-99
-6.071208	1053	-99
-4.52098	106	-99
-6.372239	106.334.600	-99
-6.372239	106.667	-99
-5.895117	1061	-99
-5.469149	1064	-99
-4.759455	107	-8.442927
-5.770179	1071	-99
-6.372239	1072	-99
-5.770179	1073	-99
-6.372239	1077	-99
-4.770179	108	-99
-6.372239	108.262.500	-99
-6.372239	108.487.700	-99
-6.372239	108a	-99
-4.909841	109	-7.372037
-6.372239	109,3	-99
-6.372239	109a	-99
-6.372239	10a	-99
-6.372239	10b	-99
-6.372239	10ª	-99
-3.231103	11	-8.706829
-6.372239	11.024.350	-99
-6.372239	11.10	-99
-6.372239	11.149.250	-99
-6.372239	11.16	-99
-6.372239	11.314.500	-99
-6.372239	11.380.200	-99
-6.372239	11.633.000	-99
-4.690998	110	-99
-6.372239	110.665.500	-99
-6.372239	1100	-99
-6.372239	1106	-99
-6.372239	110a	-99
-4.700141	111	-8.002415
-6.372239	111,0	-99
-6.372239	1113	-99
-6.071208	111ª	-99
-4.815936	112	-7.682114
-6.372239	112,3	-99
-4.804037	1125	-9.021232
-4.682043	113	-7.89517
-6.372239	113,3	-99
-5.895117	113-s	-99
-6.372239	113.232.600	-99
-5.770179	1133	-99
-4.700141	114	-99
-6.372239	114,0	-99
-6.372239	114,3	-99
-6.372239	114-e	-99
-5.673269	1145	-99
-6.372239	1146	-99
-4.673269	115	-99
-6.372239	115.500	-99
-5.673269	1154	-7.990642
-6.372239	1157	-99
-4.639845	116	-7.434459
-6.071208	116ibíd	-99
-6.372239	116véase	-99
-4.792455	117	-99
-6.372239	117,1	-99
-6.372239	117.662.100	-99
-6.071208	1173	-7.473164
-6.071208	1179	-99
-4.853725	118	-99
-6.372239	11806	-99
-4.673269	119	-99
-6.372239	119,9	-99
-6.372239	1193	-99
-5.372239	1194	-99
-5.417996	1196	-99
-5.14179	1197	-99
-6.372239	119a	-99
-5.594088	11a	-7.474017
-6.372239	11a.2	-99
-6.071208	11b	-7.477218
-6.071208	11véase	-7.471561
-5.594088	11ª	-8.00828
-6.372239	11ªa	-99
-3.250679	12	-99
-6.372239	12,5	-99
-6.071208	12.10	-7.470271
-6.372239	12.11	-99
-6.372239	12.132.500	-99
-6.372239	12.15	-99
-6.372239	12.191.000	-99
-6.372239	12.22	-99
-6.372239	12.29	-99
-6.372239	12.54	-99
-6.372239	12.661.600	-99
-6.071208	12.7	-7.464264
-6.071208	12.785.200	-99
-6.372239	12.800	-99
-6.071208	12.810.200	-99
-6.372239	12.813.400	-99
-6.372239	12.930.700	-99
-4.594088	120	-7.545027
-6.372239	1201	-99
-6.372239	120a	-99
-4.759455	121	-8.05337
-6.071208	121-e	-99
-6.372239	1214	-99
-4.53973	122	-7.810816
-6.372239	122.179.200	-99
-6.372239	122ibíd	-99
-4.73877	123	-99
-5.770179	123-e	-99
-4.690998	124	-7.755324
-6.372239	124.750	-99
-6.372239	124.900	-99
-5.330846	1244	-99
-5.372239	1249	-99
-4.690998	125	-99
-5.770179	125.000	-99
-5.594088	1257	-99
-6.372239	1258	-99
-6.372239	125a	-99
-4.792455	126	-8.422986
-6.071208	1267	-99
-6.372239	1268	-99
-6.372239	1269	-99
-4.770179	127	-8.205365
-6.372239	127.300	-99
-5.895117	1270	-99
-5.469149	1272	-99
-4.559325	128	-7.96029
-6.372239	128.536.700	-99
-6.372239	128a	-99
-6.372239	128véase	-99
-4.719026	129	-8.246713
-6.372239	1291	-99
-6.372239	1295	-99
-5.469149	1299	-99
-5.372239	12a	-8.488086
-6.372239	12véase	-99
-5.594088	12ª	-7.362037
-6.372239	12ªa	-99
-5.093485	12º	-99
-3.323021	13	-99
-5.895117	13.00	-99
-6.372239	13.185.850	-99
-6.071208	13.383.200	-99
-6.372239	13.660.500	-99
-6.071208	13.727.500	-99
-6.372239	13.9	-99
-4.781174	130	-8.38036
-6.071208	130-e	-99
-6.372239	1300	-99
-6.071208	1301	-99
-5.673269	1304	-99
-6.372239	1306	-99
-6.071208	1308	-99
-6.071208	1309	-99
-4.759455	131	-99
-6.372239	131.996.500	-99
-6.372239	1310	-99
-5.895117	1312	-99
-6.372239	1318	-99
-6.071208	1319	-99
-4.719026	132	-7.445011
-6.372239	132.650	-99
-5.770179	1322	-99
-5.22611	1325	-99
-6.071208	1329	-99
-4.74899	133	-99
-6.372239	133.678.100	-99
-6.372239	1331	-99
-5.895117	1333	-99
-6.071208	1338	-99
-4.700141	134	-7.81465
-6.372239	134.879.200	-99
-6.071208	13446	-99
-6.071208	1345	-99
-6.071208	1349	-99
-6.372239	134a	-99
-4.770179	135	-99
-5.673269	1359	-7.962517
-4.792455	136	-7.949279
-6.372239	136.062.800	-99
-6.372239	1365	-99
-5.895117	1366	-99
-6.372239	1369	-99
-4.828171	137	-99
-6.071208	137-e	-99
-6.372239	137.385.100	-99
-6.372239	1370	-99
-6.071208	1371	-99
-6.372239	1372	-99
-5.071208	1373	-99
-6.372239	1376	-99
-6.071208	1377	-99
-5.895117	1378	-99
-4.792455	138	-8.482068
-6.071208	1383	-99
-4.84076	139	-8.451447
-5.770179	1392	-7.473164
-5.469149	1397	-99
-5.527141	13a	-99
-6.071208	13ibíd	-99
-5.372239	13ª	-7.634133
-5.594088	13º	-99
-3.338012	14	-7.664238
-6.071208	14.18	-7.448113
-5.895117	14.19	-99
-6.372239	14.213.700	-99
-6.372239	14.26	-99
-6.372239	14.4	-99
-6.071208	14.400.050	-99
-6.071208	14.47	-7.481331
-6.372239	14.583.900	-99
-6.372239	14.769.600	-99
-6.372239	14.889.500	-99
-4.728786	140	-7.60761
-6.372239	1401	-99
-6.372239	1409	-99
-6.372239	140a	-99
-4.664669	141	-7.914118
-6.372239	141.889.841	-99
-6.071208	1410	-99
-6.372239	1413	-99
-6.372239	1416	-99
-6.372239	1419	-99
-4.84076	142	-99
-6.071208	1429	-99
-4.957265	143	-7.652778
-6.071208	1431	-99
-6.372239	1433	-99
-6.372239	1436	-99
-6.372239	143a	-99
-6.071208	143véase	-99
-4.74899	144	-7.588212
-6.372239	144-e	-99
-6.071208	1440	-99
-5.895117	1441	-99
-5.673269	14458	-99
-6.372239	144a	-99
-4.84076	145	-7.526164
-5.673269	1456	-7.977219
-5.770179	1459	-99
-4.579847	146	-8.29084
-6.372239	146.833.694	-99
-5.895117	1460	-99
-5.469149	1465	-99
-5.469149	14691	-99
-4.815936	147	-99
-5.116966	1478	-99
-4.867089	148	-7.307344
-6.372239	1480	-99
-6.071208	1483	-99
-4.828171	149	-99
-6.372239	149.021.150	-99
-5.770179	1493	-99
-5.770179	1495	-99
-6.372239	1497	-99
-6.071208	14a	-7.477066
-5.258296	14ª	-99
-5.594088	14º	-99
-3.352707	15	-99
-5.895117	15.00	-99
-6.372239	15.10	-99
-6.372239	15.14	-99
-6.372239	15.35	-99
-6.071208	15.637.800	-99
-6.372239	15.638.200	-99
-6.372239	15.671.000	-99
-6.372239	15.879.900	-99
-4.867089	150	-7.946293
-6.372239	150.000	-99
-5.050019	1502	-99
-6.071208	15020	-99
-5.527141	1503	-99
-5.770179	1506	-99
-6.071208	1509	-99
-4.579847	151	-99
-5.895117	1512	-99
-4.165413	1514	-99
-5.14179	1515	-99
-4.682043	152	-99
-6.372239	152.443.900	-99
-5.417996	1520	-99
-6.372239	1521	-99
-6.372239	1522	-99
-6.071208	1528	-99
-6.071208	1529	-99
-4.74899	153	-7.873767
-6.372239	1533	-99
-6.372239	1534	-99
-6.372239	1535	-99
-6.372239	1539	-99
-4.804037	154	-8.331246
-6.372239	154-s	-99
-5.372239	1540	-99
-4.719026	1541	-99
-6.071208	1542	-99
-6.372239	1543	-99
-5.770179	1544	-99
-6.372239	1545	-99
-4.853725	155	-7.373055
-5.895117	15511	-99
-6.372239	1556	-99
-4.781174	156	-7.956483
-6.372239	1562	-99
-6.071208	1565	-99
-4.759455	157	-99
-5.071208	1577	-99
-4.664669	158	-8.913769
-6.372239	158a	-99
-4.895117	159	-7.468534
-6.372239	159.455.750	-99
-6.372239	1590	-99
-6.372239	1591	-99
-6.372239	1592	-99
-6.372239	1593	-99
-6.071208	1596	-99
-6.372239	159a	-99
-6.372239	15a	-99
-6.372239	15ª	-99
-5.895117	15º	-99
-3.385915	16	-7.460671
-6.372239	16.103.750	-99
-6.372239	16.211.300	-99
-6.372239	16.7	-99
-4.559325	160	-99
-6.372239	1609	-99
-4.853725	161	-7.800547
-6.372239	161.936.100	-99
-6.071208	1612	-99
-6.372239	1616	-99
-6.372239	161ª	-99
-4.624051	162	-99
-5.594088	1624	-99
-6.372239	1625	-99
-6.372239	1627	-99
-4.867089	163	-7.769871
-6.372239	163-s	-99
-4.770179	164	-7.340104
-6.372239	1645	-99
-4.815936	165	-99
-5.895117	1651	-99
-5.895117	1653	-99
-6.372239	1659	-99
-4.792455	166	-99
-6.372239	1662	-99
-4.84076	167	-8.107631
-5.330846	1674	-99
-4.895117	168	-7.48365
-6.372239	1684	-99
-4.566059	169	-7.293926
-6.071208	169.431.700	-99
-6.071208	16a	-99
-5.895117	16ª	-99
-6.372239	16º	-99
-3.424315	17	-99
-6.372239	17.00	-99
-6.372239	17.10	-99
-6.372239	17.12	-99
-6.071208	17.13	-7.464264
-6.372239	17.18	-99
-6.372239	17.267.400	-99
-6.372239	17.33	-99
-6.372239	17.37	-99
-6.372239	17.374.700	-99
-6.372239	17.41	-99
-6.372239	17.42	-99
-6.372239	17.50	-99
-6.372239	17.54	-99
-6.372239	17.55	-99
-6.372239	17.59	-99
-6.372239	17.7	-99
-6.372239	17.777.000	-99
-6.372239	17.9	-99
-4.84076	170	-8.506069
-6.372239	170.221.100	-99
-6.071208	1701	-99
-6.372239	1704	-99
-6.372239	1707	-99
-4.709481	171	-7.414705
-6.372239	1710	-99
-6.071208	1715	-99
-6.372239	1718	-99
-4.828171	172	-99
-6.372239	172.417.700	-99
-6.372239	172.480.500	-99
-6.372239	172.851.200	-99
-6.372239	1721	-99
-6.372239	1729	-99
-4.804037	173	-7.756079
-6.372239	173.611.600	-99
-6.372239	173.650.800	-99
-4.792455	174	-8.492057
-6.372239	174.679.200	-99
-6.372239	174.689.650	-99
-6.372239	174a	-99
-4.728786	175	-8.008691
-5.029816	17512	-7.679369
-5.14179	17513	-99
-5.895117	1754	-99
-4.828171	176	-99
-6.071208	176.268.900	-99
-6.372239	176.866.900	-99
-5.168118	1760	-99
-6.372239	1769	-99
-4.673269	177	-7.797771
-6.372239	177.826.200	-99
-5.330846	1771	-99
-4.815936	178	-7.734447
-4.770179	179	-7.680831
-6.372239	179.097.566	-99
-6.372239	1798	-99
-6.372239	17b	-99
-5.594088	17ª	-99
-5.770179	17º	-99
-3.430231	18	-7.893629
-6.372239	18,2	-99
-6.372239	18,7	-99
-6.372239	18,9	-99
-6.071208	18.00	-99
-6.372239	18.022.600	-99
-6.372239	18.803.200	-99
-4.514906	180	-99
-4.586909	181	-8.729631
-6.372239	181.300	-99
-6.372239	181a	-99
-4.399111	182	-99
-6.372239	182.444.000	-99
-6.372239	182a	-99
-4.770179	183	-99
-5.895117	1833	-99
-5.594088	1834	-99
-5.770179	1836	-99
-4.853725	184	-7.993792
-6.372239	184.000	-99
-4.759455	185	-99
-4.804037	186	-99
-4.74899	187	-99
-4.909841	1874	-99
-5.895117	187a	-99
-4.828171	188	-99
-4.601387	189	-7.682689
-6.372239	1896	-99
-6.372239	18a.10	-99
-6.372239	18a.12	-99
-6.372239	18a.18	-99
-6.372239	18a.25	-99
-6.071208	18ª	-99
-6.372239	18º	-99
-3.41272	19	-99
-6.372239	19,7	-99
-6.372239	19,9	-99
-6.372239	19.062.200	-99
-6.372239	19.097.000	-99
-6.372239	19.10	-99
-6.071208	19.11	-7.456909
-6.071208	19.12	-7.474409
-6.372239	19.13	-99
-6.372239	19.15	-99
-6.372239	19.16	-99
-6.071208	19.17	-7.456909
-6.071208	19.18	-7.474409
-6.372239	19.19	-99
-6.372239	19.21	-99
-6.372239	19.22	-99
-6.372239	19.4	-99
-6.372239	19.40	-99
-6.372239	19.48	-99
-6.372239	19.5	-99
-6.372239	19.523.800	-99
-6.372239	19.6	-99
-5.770179	19.7	-7.120107
-6.071208	19.8	-7.474409
-6.372239	19.9	-99
-6.372239	19.962.000	-99
-4.895117	190	-7.467585
-4.84076	191	-7.30478
-6.372239	191.550.900	-99
-6.071208	1911	-99
-4.867089	192	-7.445138
-6.372239	192.312.400	-99
-5.330846	1925	-7.865944
-6.071208	1925sociedad	-99
-5.895117	1929	-99
-6.372239	192véase	-99
-4.895117	193	-7.268485
-6.071208	193.245.850	-99
-6.372239	193.337.100	-99
-6.071208	1930	-7.458663
-4.403756	194	-99
-5.527141	1946	-99
-5.22611	1947	-99
-4.700141	1948	-99
-6.071208	1948la	-99
-6.372239	1948resolución	-99
-4.682043	1949	-99
-6.372239	1949a	-99
-5.093485	1949ibíd	-99
-4.503007	1949naciones	-99
-4.925081	195	-99
-5.293057	1950	-99
-5.258296	1951	-99
-5.770179	1951ibíd	-99
-5.417996	1951naciones	-99
-6.071208	1952a	-99
-4.925081	1954	-99
-5.673269	1954ibíd	-99
-5.895117	1954naciones	-99
-4.909841	1955	-10.28644
-5.372239	1957	-7.443563
-5.673269	1958	-7.997212
-5.895117	1958naciones	-99
-5.770179	1959	-99
-4.84076	196	-99
-6.372239	196.100.900	-99
-4.342855	1960	-8.307703
-5.673269	1961	-7.958677
-5.673269	1961ibíd	-99
-6.372239	1962	-99
-4.867089	1963	-99
-5.673269	1965	-99
-5.258296	1966	-99
-6.372239	1966véase	-99
-3.860355	1967	-99
-6.372239	1967a	-99
-5.673269	1967e	-99
-5.330846	1967ibíd	-99
-6.372239	1967naciones	-99
-6.372239	1967véanse	-99
-5.673269	1967véase	-7.974752
-4.895117	1968	-7.580182
-5.527141	1969	-99
-5.469149	1969naciones	-99
-4.759455	197	-99
-4.700141	1970	-99
-4.992027	1971	-99
-5.168118	1972	-8.045338
-4.381012	1973	-99
-5.22611	1974	-99
-4.992027	1975	-8.197963
-5.372239	1976	-7.581682
-4.880877	1977	-99
-5.293057	1977ibíd	-99
-6.372239	1977naciones	-99
-4.719026	1978	-8.031405
-4.925081	1979	-7.791329
-5.770179	1979documentos	-99
-4.895117	198	-7.578069
-4.408451	1980	-99
-4.307781	1981	-7.734931
-4.690998	1982	-8.077675
-5.594088	1983	-99
-5.895117	1983naciones	-99
-5.258296	1984	-99
-5.050019	1985	-99
-4.579847	1986	-8.484365
-4.594088	1987	-8.047752
-5.895117	1987publicación	-99
-4.815936	1988	-8.553374
-5.770179	1988véase	-99
-4.940875	1989	-8.032538
-6.071208	1989resolución	-99
-5.770179	1989véase	-99
-4.709481	199	-7.317726
-4.304053	1990	-99
-6.372239	1990-2000	-99
-5.527141	1990a	-99
-6.071208	1990resolución	-99
-6.372239	1990véase	-99
-4.100397	1991	-8.309641
-6.372239	1991-2000	-99
-5.293057	1991a	-99
-4.304053	1992	-99
-6.071208	1992-1993	-99
-6.372239	199231	-99
-5.14179	1992cd	-99
-4.056268	1993	-7.981575
-5.895117	1993-1994	-99
-6.372239	1993-1998	-99
-5.770179	1993-2002	-7.905007
-6.372239	1993.560	-99
-4.463754	1993a	-99
-5.372239	1993documentos	-99
-5.372239	1993véase	-7.595695
-4.008627	1994	-99
-6.372239	1994-2002	-99
-6.071208	1994-7	-99
-6.372239	1994.580	-99
-6.071208	1994resolución	-99
-4.031795	1995	-99
-6.372239	1995-1997	-99
-5.093485	1995-2004	-8.142985
-5.469149	1995-2004a	-99
-6.372239	1995.560	-99
-6.372239	1995.570	-99
-6.372239	1995.582	-99
-6.372239	1995.590	-99
-6.372239	1995.600	-99
-5.895117	1995a	-99
-5.673269	1995s	-99
-3.905371	1996	-99
-4.84076	1996-2005	-7.680387
-6.372239	1996-2005a	-99
-5.168118	1996a	-99
-6.372239	1996organización	-99
-6.071208	1996s	-99
-5.895117	1996véase	-99
-3.979542	1997	-99
-6.071208	1997-1999	-99
-4.880877	1997-2006	-99
-5.673269	1997a	-99
-6.372239	1997véase	-99
-3.736755	1998	-99
-6.071208	1998-1999	-7.476756
-6.372239	1998-1999a	-99
-5.895117	1998-2002	-99
-6.372239	1998-2007	-99
-5.469149	1998a	-99
-6.071208	1998naciones	-99
-5.372239	1998véase	-7.500611
-3.4995	1999	-99
-6.071208	1999-2000	-99
-6.071208	1999-2003	-99
-6.372239	1999.550	-99
-5.258296	1999a	-99
-6.372239	1999consejo	-99
-5.594088	1999documentos	-99
-6.071208	1999e	-99
-6.372239	1999resoluciones	-99
-6.372239	1999resolución	-99
-5.527141	1999s	-99
-6.372239	1999splos	-99
-5.770179	1999véase	-7.295465
-6.372239	19ª	-99
-6.071208	1o	-7.441298
-5.527141	1º	-99
-2.844609	2	-8.161156
-5.594088	2,5	-99
-6.372239	2,8	-99
-5.527141	2-e	-99
-6.071208	2.000	-7.481747
-6.372239	2.060.629.050	-99
-6.372239	2.116.800	-99
-6.372239	2.13	-99
-5.895117	2.15	-99
-5.895117	2.17	-99
-6.372239	2.172.400	-99
-6.372239	2.177.700	-99
-5.895117	2.19	-99
-6.372239	2.192.100	-99
-6.372239	2.200	-99
-5.673269	2.22	-99
-5.895117	2.24	-99
-6.372239	2.241.667.450	-99
-6.071208	2.26	-99
-6.372239	2.305.800	-99
-6.071208	2.31	-99
-6.372239	2.313.100	-99
-5.770179	2.33	-7.896444
-6.372239	2.340.000	-99
-6.071208	2.35	-99
-6.372239	2.357.200	-99
-6.372239	2.384.200	-99
-6.071208	2.384.700	-99
-6.071208	2.39	-99
-5.895117	2.41	-99
-5.770179	2.43	-7.895573
-6.372239	2.46	-99
-6.372239	2.48	-99
-6.372239	2.486.900	-99
-6.372239	2.515,3	-99
-6.372239	2.533.125.400	-99
-6.372239	2.535.689.200	-99
-6.372239	2.563.800	-99
-6.372239	2.600	-99
-6.071208	2.625.178.700	-99
-6.372239	2.699.267.800	-99
-6.372239	2.7	-99
-6.372239	2.751.000	-99
-6.372239	2.764.917	-99
-6.372239	2.783	-99
-6.372239	2.8	-99
-6.372239	2.807.300	-99
-6.372239	2.876	-99
-6.372239	2.891.068.700	-99
-6.372239	2.9	-99
-6.372239	2.955.600	-99
-3.266728	20	-8.503325
-6.372239	20.000	-99
-6.372239	20.051.150	-99
-6.372239	20.053.100	-99
-6.372239	20.087.200	-99
-6.372239	20.456.600	-99
-4.700141	200	-99
-5.14179	200.000	-99
-6.372239	200.126.100	-99
-6.372239	200.150.000	-99
-6.372239	200.646.600	-99
-6.071208	200.867.400	-99
-3.243516	2000	-9.011913
-4.781174	2000-2001	-7.765838
-6.372239	2000-2001.555	-99
-6.372239	2000-2001.571	-99
-5.895117	2000-2001a	-99
-5.770179	2000-2003	-7.883949
-6.071208	2000-2005	-99
-6.372239	2000-31	-99
-6.372239	2000.555	-99
-6.372239	2000.565	-99
-6.372239	2000.570	-99
-6.372239	2000.585	-99
-4.84076	2000a	-99
-6.372239	2000conferencia	-99
-5.417996	2000documentos	-99
-5.895117	2000e	-99
-6.071208	2000ibíd	-99
-6.372239	2000naciones	-99
-6.372239	2000organismo	-99
-6.372239	2000publicación	-99
-5.895117	2000s	-99
-5.770179	2000td	-99
-4.572898	2000véase	-8.167882
-3.299254	2001	-7.403107
-6.071208	2001-2002	-99
-5.527141	2001-2003	-99
-6.372239	2001-2004	-99
-6.372239	2001-2005	-99
-4.624051	2001-2010	-7.704795
-6.372239	2001-2010.572	-99
-5.22611	2001-2010a	-99
-5.527141	2001-2010ibíd	-99
-6.071208	2001-2010véase	-99
-6.071208	2001.556	-99
-6.372239	2001.560	-99
-5.071208	2001a	-99
-6.071208	2001acuerdo	-99
-6.372239	2001ctbt	-99
-6.372239	2001ctbt-art.xiv	-99
-5.330846	2001documentos	-99
-6.071208	2001e	-99
-6.071208	2001hcr	-99
-6.071208	2001ibíd	-99
-6.372239	2001ilo	-99
-6.071208	2001oau	-99
-6.372239	2001organismo	-99
-6.071208	2001publicación	-99
-6.372239	2001publicado	-99
-6.372239	2001véanse	-99
-4.781174	2001véase	-7.756924
-3.299621	2002	-99
-4.245134	2002-2003	-99
-5.673269	2002-2003a	-99
-6.372239	2002-2003documentos	-99
-6.372239	2002-2003ibíd	-99
-6.372239	2002-2003véase	-99
-5.895117	2002-2004	-99
-5.010511	2002-2005	-8.64628
-6.071208	2002-2005a	-99
-5.895117	2002-2005documentos	-99
-6.071208	2002-2005ibíd	-99
-6.071208	2002-2006	-99
-6.372239	2002-2007	-99
-6.372239	2002.550	-99
-6.372239	2002.552	-99
-6.372239	2002.562	-99
-6.372239	2002.566	-99
-4.925081	2002a	-99
-5.330846	2002documentos	-99
-6.372239	2002e	-99
-6.071208	2002ibíd	-99
-6.071208	2002informe	-99
-6.372239	2002la	-99
-6.372239	2002organismo	-99
-6.372239	2002organización	-99
-5.895117	2002publicación	-99
-6.071208	2002s	-99
-4.940875	2002véase	-7.42627
-3.251994	2003	-99
-5.770179	2003-2004	-7.283266
-6.372239	2003-2007	-99
-6.372239	2003.562	-99
-6.071208	2003.572	-99
-6.071208	2003.573	-99
-6.372239	2003.585	-99
-6.372239	2003.595	-99
-5.010511	2003a	-99
-6.372239	2003comisión	-99
-6.071208	2003ctbt-art.xiv	-99
-5.527141	2003documentos	-99
-6.071208	2003e	-99
-5.770179	2003ibíd	-99
-6.372239	2003organismo	-99
-6.372239	2003publicación	-99
-6.372239	2003publicado	-99
-5.770179	2003s	-99
-4.895117	2003véase	-99
-3.349398	2004	-10.66268
-4.199052	2004-2005	-8.667446
-6.372239	2004-2005.570	-99
-6.372239	2004-2005.573	-99
-5.673269	2004-2005a	-99
-5.895117	2004-2005documentos	-99
-5.895117	2004-2005véase	-99
-6.372239	2004-2006	-99
-6.071208	2004-2007	-7.454823
-6.071208	2004-2007a	-99
-6.372239	2004.560	-99
-6.372239	2004.570	-99
-6.372239	2004.583	-99
-6.372239	2004.585	-99
-6.372239	2004.586	-99
-6.372239	2004.600	-99
-6.372239	2004596	-99
-5.293057	2004a	-99
-5.527141	2004documentos	-99
-6.372239	2004e	-99
-6.372239	2004ibíd	-99
-6.372239	2004organismo	-99
-6.372239	2004resolución	-99
-6.071208	2004se	-99
-6.372239	2004td	-99
-6.372239	2004unctad	-99
-5.895117	2004véanse	-99
-4.909841	2004véase	-7.700071
-3.360668	2005	-99
-6.372239	2005-2006	-99
-6.372239	2005-2006a	-99
-6.071208	2005-2006véase	-7.471561
-5.895117	2005-2007	-99
-6.071208	2005-2009ibíd	-99
-6.372239	2005-2009véase	-99
-6.372239	2005-2014	-99
-5.196147	2005-2015	-7.590631
-6.372239	2005-2015marco	-99
-6.372239	2005.590	-99
-6.372239	2005.593	-99
-6.372239	2005.595	-99
-6.372239	2005.596	-99
-6.372239	2005.605	-99
-6.372239	2005.615	-99
-4.895117	2005a	-99
-6.372239	2005ctbt-art	-99
-6.071208	2005ctbt-art.xiv	-99
-5.417996	2005documentos	-99
-5.895117	2005e	-99
-5.168118	2005ibíd	-99
-6.372239	2005naciones	-99
-6.372239	2005organismo	-99
-6.372239	2005organización	-99
-6.372239	2005resolución	-99
-5.895117	2005se	-99
-4.22611	2005véase	-99
-3.510704	2006	-99
-4.282333	2006-2007	-99
-5.417996	2006-2007a	-99
-6.071208	2006-2007documentos	-99
-6.372239	2006-2007ibíd	-99
-6.071208	2006-2007véase	-7.471561
-6.372239	2006-2009	-99
-5.895117	2006-2010	-99
-6.372239	2006-2010se	-99
-5.895117	2006.603	-99
-6.372239	2006.622	-99
-5.196147	2006a	-99
-5.895117	2006documentos	-99
-5.196147	2006ibíd	-99
-6.372239	2006organismo	-99
-5.594088	2006resolución	-99
-6.372239	2006s	-99
-6.372239	2006tratado	-99
-5.168118	2006véase	-7.242624
-3.713274	2007	-8.393754
-6.372239	2007-2008	-99
-5.770179	2007-2009	-7.276752
-6.372239	2007-2010	-99
-6.372239	2007-2012	-99
-6.372239	2007.600	-99
-6.372239	2007.610	-99
-6.071208	2007.613	-99
-6.372239	2007.616	-99
-6.372239	2007.625	-99
-5.673269	2007a	-99
-6.372239	2007ctbt-art.xiv	-99
-5.770179	2007documentos	-99
-6.071208	2007ibíd	-99
-6.372239	2007s	-99
-5.527141	2007véase	-99
-4.157395	2008	-99
-4.497178	2008-2009	-7.99167
-6.372239	2008-2009.615	-99
-5.594088	2008-2009a	-99
-6.071208	2008-2009ibíd	-99
-5.895117	2008-2011véanse	-99
-5.770179	2008-2017	-99
-6.372239	2008.601	-99
-6.372239	2008.620	-99
-6.372239	2008.623	-99
-6.372239	2008.626	-99
-6.372239	2008a	-99
-6.372239	2008documentos	-99
-4.828171	2009	-7.843616
-6.372239	2009.612	-99
-6.372239	2009.623	-99
-4.728786	201	-7.370944
-6.372239	201.423.900	-99
-4.559325	2010	-99
-5.770179	2010-2011	-7.111472
-6.372239	2010-2013ibíd	-99
-6.372239	2010.621	-99
-5.770179	2011	-7.895573
-6.372239	2011-2012	-99
-6.372239	2011.616	-99
-5.527141	2012	-99
-6.372239	2014	-99
-4.700141	2015	-99
-6.372239	2016	-99
-4.815936	202	-99
-5.673269	2020	-7.599648
-6.372239	2021	-99
-6.071208	2028	-99
-4.74899	203	-99
-5.168118	20378	-99
-4.867089	204	-7.451639
-6.372239	204.230.264	-99
-6.372239	204.562	-99
-4.719026	205	-8.046083
-6.071208	205-s	-99
-5.417996	2051	-99
-5.330846	2056	-99
-5.594088	2058	-99
-6.372239	205a	-99
-4.73877	206	-99
-4.682043	207	-7.556673
-6.372239	207.246.100	-99
-6.372239	207.407.400	-99
-4.682043	208	-7.69378
-6.071208	2089	-99
-4.682043	209	-99
-6.372239	2099	-99
-6.372239	209a	-99
-6.372239	20a	-99
-5.895117	20ª	-99
-3.489714	21	-7.521004
-6.372239	21,1	-99
-6.372239	21,6	-99
-6.372239	21.008.100	-99
-6.071208	21.012.700	-99
-6.372239	21.1	-99
-6.372239	21.10	-99
-6.372239	21.12	-99
-6.372239	21.14	-99
-6.372239	21.16	-99
-6.372239	21.17	-99
-6.372239	21.193.700	-99
-6.372239	21.20	-99
-6.372239	21.22	-99
-6.372239	21.24	-99
-6.372239	21.28	-99
-6.372239	21.30	-99
-6.372239	21.32	-99
-6.372239	21.5	-99
-6.372239	21.60	-99
-6.372239	21.789.400	-99
-6.372239	21.939.900	-99
-6.071208	21.962.900	-7.444067
-4.552695	210	-7.287181
-5.22611	2106	-99
-4.664669	211	-7.977821
-5.469149	2114	-99
-6.372239	211a	-99
-4.647963	212	-8.261786
-6.372239	2121	-99
-4.546164	213	-8.231006
-6.372239	213.298.950	-99
-5.673269	2131	-99
-5.527141	21360	-99
-5.895117	2138	-99
-4.664669	214	-7.543005
-4.594088	215	-99
-5.594088	2153	-99
-6.372239	2158	-99
-4.624051	216	-99
-6.372239	216.592	-99
-5.895117	2163	-99
-6.372239	2167	-99
-4.098081	217	-7.635983
-6.071208	2170	-99
-5.594088	2171	-99
-5.527141	2173	-99
-6.071208	217a	-99
-4.508916	218	-8.731725
-6.372239	218.216.300	-99
-6.372239	218.242.100	-99
-6.372239	218.725.650	-99
-5.330846	2187	-99
-4.759455	219	-99
-6.071208	219-s	-99
-6.071208	21a	-99
-5.770179	21ibíd	-99
-6.372239	21resolución	-99
-6.372239	21véase	-99
-6.071208	21ª	-99
-3.352292	22	-99
-6.372239	22,3	-99
-6.372239	22.242.700	-99
-6.372239	22.27	-99
-6.372239	22.329.871	-99
-6.372239	22.383.900	-99
-6.372239	22.405.400	-99
-6.372239	22.450.100	-99
-4.664669	220	-99
-4.346933	2200	-99
-5.196147	2205	-99
-4.631876	221	-99
-6.372239	2212	-99
-6.372239	2214	-99
-4.616364	222	-7.799765
-6.071208	222.031.700	-99
-5.895117	2220	-99
-6.372239	2221	-99
-5.116966	2222	-99
-6.372239	2225	-99
-6.071208	2226	-99
-6.372239	222a	-99
-4.759455	223	-99
-6.372239	223.169.800	-99
-6.372239	22341	-99
-4.792455	224	-8.301465
-6.071208	224-s	-99
-6.372239	224.300	-99
-5.527141	22464	-99
-4.709481	225	-99
-6.372239	225.682.400	-99
-5.469149	2252	-99
-6.372239	2253	-99
-4.656235	226	-8.086603
-4.664669	227	-7.748337
-6.372239	227.600	-99
-6.372239	227.630.600	-99
-6.372239	2271	-99
-4.815936	228	-7.627255
-5.673269	2286	-99
-4.84076	229	-8.123324
-5.895117	2296	-99
-6.372239	22véase	-99
-6.372239	22ª	-99
-3.272558	23	-7.989064
-6.372239	23,7	-99
-6.372239	23.11	-99
-6.372239	23.14	-99
-6.372239	23.2	-99
-6.372239	23.3	-99
-6.372239	23.35	-99
-6.372239	23.4	-99
-6.372239	23.556.753	-99
-6.372239	23.782.100	-99
-6.372239	23.827.500	-99
-4.895117	230	-7.478151
-6.372239	230.616.400	-99
-4.709481	231	-99
-6.372239	231.506.500	-99
-6.372239	231.612.600	-99
-5.770179	2312	-99
-5.770179	23177	-99
-4.84076	232	-7.852409
-6.372239	232.890.200	-99
-4.608811	233	-7.42412
-4.728786	234	-99
-5.469149	2341	-99
-6.071208	2349	-99
-6.372239	234a	-99
-4.485748	235	-8.054588
-6.372239	235.585	-99
-6.372239	235.615	-99
-6.071208	235.955.000	-99
-4.895117	236	-7.594591
-6.372239	236.582	-99
-6.071208	236a	-99
-4.53339	237	-7.842752
-6.372239	237.244	-99
-5.770179	2373	-99
-4.84076	238	-8.299237
-4.867089	239	-7.29281
-6.372239	23ª	-99
-3.561334	24	-99
-6.372239	24.11	-99
-6.372239	24.14	-99
-6.372239	24.15	-99
-6.372239	24.258.500	-99
-6.372239	24.29	-99
-6.372239	24.3	-99
-6.372239	24.39	-99
-6.372239	24.4	-99
-6.372239	24.5	-99
-6.372239	24.58	-99
-6.372239	24.6	-99
-6.372239	24.840.100	-99
-4.880877	240	-99
-6.372239	240.323.000	-99
-6.372239	240.912.700	-99
-4.664669	241	-99
-5.372239	24111	-99
-6.372239	241a	-99
-4.403756	242	-7.660962
-6.372239	242.400	-99
-6.372239	242.791.600	-99
-4.690998	243	-7.481002
-4.700141	244	-99
-5.469149	2443	-99
-4.469149	245	-8.085068
-4.940875	246	-99
-5.895117	24631	-99
-6.372239	24635	-99
-4.781174	247	-7.579632
-4.700141	248	-99
-6.372239	248.926.200	-99
-5.469149	24841	-99
-4.700141	249	-99
-6.372239	249.500	-99
-5.895117	24o	-99
-5.895117	24ª	-7.675672
-3.597722	25	-7.33185
-6.372239	25,5	-99
-5.770179	25.000	-99
-6.372239	25.14	-99
-6.372239	25.395.513	-99
-6.071208	25.4	-7.448113
-6.372239	25.5	-99
-6.071208	25.6	-7.470271
-6.071208	25.668.500	-99
-6.071208	25.878.800	-99
-4.867089	250	-7.735744
-6.372239	250.000	-99
-6.071208	2502	-99
-5.673269	25036	-99
-4.673269	251	-8.075088
-4.992027	252	-99
-6.372239	252.602.200	-99
-6.372239	2529	-99
-4.673269	253	-99
-4.853725	254	-7.333915
-6.372239	254.603.800	-99
-6.372239	254.757.400	-99
-5.168118	2545	-99
-4.853725	255	-8.203338
-6.372239	255.909.500	-99
-6.372239	255.949.300	-99
-4.700141	256	-99
-4.974298	257	-8.231889
-6.372239	257.114.600	-99
-6.372239	257.200	-99
-4.781174	258	-99
-4.974298	259	-7.939969
-5.770179	25974	-99
-6.372239	259a	-99
-6.372239	25a	-99
-5.895117	25ª	-7.666822
-5.895117	25º	-99
-3.665521	26	-7.782362
-6.071208	26.500	-99
-6.372239	26.748.816	-99
-6.372239	26.954.800	-99
-4.895117	260	-7.867666
-6.372239	2602	-99
-6.372239	260a	-99
-4.664669	261	-7.951703
-4.925081	262	-99
-6.372239	262-e	-99
-6.071208	262.653.700	-99
-6.071208	2621	-99
-4.664669	2625	-99
-4.759455	263	-99
-5.417996	26363	-99
-5.029816	264	-7.461428
-4.828171	265	-99
-6.071208	265.300	-99
-5.895117	2656	-99
-4.514906	26560	-99
-5.895117	2657	-99
-4.709481	266	-7.743735
-4.828171	267	-99
-5.673269	26705	-99
-4.992027	268	-7.59339
-4.880877	269	-7.716617
-6.071208	26a	-99
-6.071208	26ª	-7.475232
-3.689192	27	-99
-6.071208	27,2	-7.48176
-6.372239	27.080.680	-99
-4.608811	270	-7.95522
-5.093485	271	-99
-5.029816	272	-7.776451
-5.895117	2728	-99
-4.608811	273	-7.626348
-5.770179	273-s	-99
-4.925081	274	-99
-4.957265	275	-7.523686
-4.880877	27531	-9.297312
-4.895117	276	-7.514442
-6.372239	276.474.100	-99
-6.071208	27688	-99
-5.22611	277	-7.803814
-5.372239	277-s	-99
-6.372239	277.127.700	-99
-5.093485	278	-99
-6.372239	278.559.400	-99
-5.050019	279	-8.87096
-6.372239	279.501.300	-99
-6.372239	279.512.400	-99
-6.071208	2791	-99
-5.895117	27a	-99
-6.372239	27c	-99
-6.372239	27c.1	-99
-6.372239	27c.12	-99
-6.372239	27c.16	-99
-6.372239	27c.20	-99
-6.372239	27c.21	-99
-6.372239	27c.26	-99
-6.071208	27c.5	-7.473534
-6.372239	27d	-99
-6.372239	27g	-99
-6.071208	27ª	-7.481278
-3.704786	28	-99
-6.372239	28.10	-99
-6.372239	28.11	-99
-6.372239	28.18	-99
-6.071208	28.22	-7.460469
-6.372239	28.24	-99
-6.372239	28.29	-99
-6.372239	28.3	-99
-6.372239	28.30	-99
-6.372239	28.31	-99
-6.372239	28.33	-99
-6.372239	28.4	-99
-6.071208	28.452.600	-99
-6.372239	28.50	-99
-6.372239	28.511.400	-99
-6.372239	28.6	-99
-6.372239	28.66	-99
-6.372239	28.7	-99
-6.372239	28.857.800	-99
-5.417996	280	-99
-5.22611	281	-7.481381
-5.168118	2819	-99
-4.992027	282	-8.142405
-5.673269	2826	-99
-4.880877	283	-8.454395
-6.372239	283.688.500	-99
-5.770179	2832	-99
-5.293057	284	-7.751955
-4.853725	285	-7.612287
-4.909841	286	-99
-5.010511	287	-7.798481
-4.804037	288	-99
-6.372239	288.322.200	-99
-5.050019	289	-99
-6.071208	28c	-7.451546
-5.895117	28d	-7.64011
-6.372239	28e	-99
-6.372239	28f	-99
-6.071208	28g	-7.46967
-5.770179	28ª	-7.928698
-5.527141	28º	-99
-3.712322	29	-7.560521
-6.372239	29,8	-99
-6.372239	29.073.300	-99
-6.372239	29.509.150	-99
-6.372239	29.637.700	-99
-6.372239	29.943.800	-99
-4.992027	290	-99
-6.372239	290a	-99
-5.417996	291	-7.788985
-5.770179	2911	-99
-4.792455	292	-99
-6.372239	292.069.000	-99
-5.22611	293	-99
-5.14179	294	-8.603391
-4.940875	295	-99
-4.867089	296	-7.555074
-5.594088	297	-7.938753
-6.372239	297.130.500	-99
-6.372239	297.146.300	-99
-6.372239	2971	-99
-5.168118	298	-7.593156
-6.372239	298.226.300	-99
-6.071208	298.437.000	-99
-5.594088	299	-7.459811
-5.22611	2997	-99
-6.372239	29a	-99
-6.372239	29a.10	-99
-6.372239	29a.5	-99
-6.372239	29a.8	-99
-6.372239	29b	-99
-6.372239	29b.10	-99
-6.372239	29b.31	-99
-6.372239	29b.5	-99
-6.372239	29b.8	-99
-6.372239	29c	-99
-6.372239	29c.22	-99
-6.372239	29c.9	-99
-6.372239	29d	-99
-6.372239	29d.12	-99
-6.372239	29d.5	-99
-6.372239	29e	-99
-6.372239	29e.12	-99
-6.372239	29e.6	-99
-6.372239	29e.8	-99
-6.372239	29f	-99
-6.372239	29f.20	-99
-6.372239	29f.7	-99
-6.372239	29f.9	-99
-6.372239	29g	-99
-6.372239	29g.12	-99
-6.372239	29g.6	-99
-6.372239	29g.8	-99
-6.372239	29ª	-99
-5.673269	29º	-99
-6.372239	2véase	-99
-6.071208	2ª	-99
-2.958101	3	-7.684958
-6.071208	3,1	-7.48176
-6.372239	3,2	-99
-6.071208	3,5	-7.48176
-6.372239	3,8	-99
-6.372239	3.002.600	-99
-6.372239	3.004.991	-99
-6.372239	3.098.900	-99
-6.372239	3.1	-99
-6.372239	3.11	-99
-6.372239	3.12	-99
-6.372239	3.13	-99
-6.372239	3.16	-99
-6.372239	3.160.860.300	-99
-6.372239	3.179.196.100	-99
-6.372239	3.19	-99
-5.895117	3.2	-99
-6.372239	3.21	-99
-6.372239	3.25	-99
-6.372239	3.27	-99
-6.372239	3.3	-99
-6.071208	3.307.300	-99
-6.372239	3.38	-99
-6.372239	3.4	-99
-6.372239	3.44	-99
-6.372239	3.47	-99
-6.372239	3.5	-99
-6.372239	3.500	-99
-6.372239	3.563.700	-99
-6.372239	3.621.900.000	-99
-6.372239	3.642.200	-99
-6.071208	3.684.650	-99
-6.372239	3.7	-99
-6.372239	3.737.508.800	-99
-6.372239	3.798.912.500	-99
-6.372239	3.829.916.200	-99
-6.372239	3.851.900	-99
-6.372239	3.867.900	-99
-6.071208	3.875.900	-7.444067
-5.895117	3.9	-99
-6.071208	3.933.700	-99
-3.565381	30	-8.75483
-6.372239	30.006.300	-99
-6.372239	30.10	-99
-6.372239	30.12	-99
-6.372239	30.8	-99
-4.84076	300	-8.353032
-6.372239	300véase	-99
-5.417996	301	-7.848688
-4.925081	302	-7.657134
-4.895117	303	-7.44464
-4.608811	304	-8.318525
-5.168118	305	-8.232693
-6.372239	305-s	-99
-6.372239	305.137.300	-99
-6.372239	305.300	-99
-5.527141	306	-99
-5.116966	30619	-99
-5.417996	307	-99
-6.372239	307.400	-99
-5.258296	308	-7.835051
-6.372239	308.305.200	-99
-5.330846	30822	-99
-5.372239	309	-7.451546
-5.895117	30ª	-7.681986
-5.673269	30º	-99
-3.760515	31	-8.66644
-6.071208	31.000	-99
-6.372239	31.200	-99
-6.372239	31.24	-99
-6.372239	31.460.500	-99
-6.071208	31.523.100	-99
-6.372239	31.547.800	-99
-6.372239	31.9	-99
-5.417996	310	-99
-4.974298	3101	-99
-6.372239	3108	-99
-5.050019	311	-99
-5.071208	312	-7.968943
-5.527141	313	-99
-5.417996	31363	-99
-5.770179	31364	-99
-5.417996	314	-7.787953
-6.372239	315	-99
-6.372239	315.997.200	-99
-5.293057	316	-7.755926
-6.372239	316.458.000	-99
-6.372239	316.472.100	-99
-5.293057	317	-99
-4.770179	318	-99
-5.417996	319	-99
-6.372239	319-e	-99
-6.372239	31o	-99
-5.895117	31ª	-99
-4.035779	32	-99
-6.071208	32,5	-99
-6.372239	32.772.200	-99
-6.071208	32.836.900	-99
-5.770179	320	-7.915032
-5.417996	321	-99
-6.372239	321.184	-99
-5.594088	322	-99
-5.196147	323	-7.663841
-5.770179	324	-7.906028
-6.372239	324.700	-99
-5.594088	325	-7.44318
-5.417996	326	-99
-6.372239	326-s	-99
-6.372239	326.500.000	-99
-6.071208	326.573.900	-99
-5.372239	327	-7.748648
-5.673269	328	-7.962422
-5.673269	329	-7.9554
-6.071208	329.317.900	-99
-6.372239	329.714.400	-99
-6.071208	32ª	-99
-3.981304	33	-99
-5.029816	330	-7.392851
-6.071208	330.000	-99
-5.417996	331	-99
-6.372239	331.000	-99
-5.330846	332	-8.080942
-5.469149	3327	-99
-5.673269	333	-7.962422
-6.071208	3331	-7.480574
-5.527141	334	-99
-5.293057	33480	-99
-5.469149	335	-8.508919
-5.895117	3357	-99
-5.594088	336	-99
-5.673269	3369	-99
-5.330846	337	-99
-5.770179	33757	-99
-4.639845	338	-99
-6.071208	33873	-99
-5.770179	339	-7.899006
-6.071208	33a	-7.481473
-6.372239	33ª	-99
-6.372239	33º	-99
-4.088937	34	-7.611011
-6.372239	34.642.200	-99
-5.469149	340	-99
-5.417996	341	-99
-6.071208	342	-7.451546
-5.770179	343	-7.899006
-6.372239	343.979.700	-99
-5.469149	344	-7.724534
-6.372239	344-s	-99
-5.673269	345	-7.962422
-6.372239	345-s	-99
-5.895117	346	-99
-5.469149	347	-99
-6.372239	347.566.900	-99
-6.071208	348	-99
-6.372239	348.979.300	-99
-5.330846	349	-7.901669
-5.469149	3499	-99
-6.071208	34a	-99
-6.071208	34ª	-99
-4.073386	35	-99
-6.372239	35.262.900	-99
-6.372239	35.400	-99
-5.527141	350	-99
-5.527141	351	-99
-5.293057	3511	-99
-6.372239	3511.e	-99
-5.770179	352	-99
-5.673269	353	-7.973305
-6.071208	354	-7.458568
-5.417996	35457	-99
-5.770179	355	-7.226215
-6.372239	355-s	-99
-6.372239	355.949.300	-99
-5.330846	35597	-99
-5.673269	356	-7.962422
-5.258296	357	-8.033072
-5.673269	358	-99
-5.594088	359	-7.980784
-6.071208	35a	-7.481473
-6.372239	35ª	-99
-6.071208	35º	-7.480681
-4.091205	36	-7.6134
-6.372239	36,6	-99
-5.116966	360	-99
-5.293057	361	-99
-6.372239	361.298.900	-99
-5.895117	362	-99
-5.770179	363	-7.915032
-5.527141	364	-99
-5.417996	365	-99
-5.895117	366	-99
-6.071208	367	-7.435791
-5.770179	368	-99
-5.673269	369	-7.606763
-5.770179	36ª	-7.305263
-4.22302	37	-99
-6.372239	37.259.284	-99
-6.372239	37.294.100	-99
-5.527141	370	-99
-5.895117	371	-99
-5.895117	372	-99
-5.330846	373	-7.36923
-5.527141	374	-99
-5.594088	375	-7.44318
-5.895117	376	-99
-5.594088	37605	-99
-5.469149	377	-8.212968
-6.372239	37733	-99
-5.895117	37789	-99
-5.895117	378	-99
-5.895117	379	-99
-6.372239	379.046.800	-99
-6.372239	37925	-99
-6.372239	37a	-99
-6.372239	37véase	-99
-6.071208	37ª	-7.481503
-4.079983	38	-99
-6.372239	38.200	-99
-6.372239	38.613	-99
-5.372239	380	-8.89621
-6.372239	380.822.700	-99
-5.196147	381	-7.762872
-5.895117	382	-7.635785
-6.372239	382.900	-99
-5.417996	383	-7.475543
-5.673269	384	-7.977125
-5.770179	385	-7.915032
-5.330846	38544	-99
-5.330846	386	-7.678699
-6.071208	386.587.300	-99
-6.372239	386.892.500	-99
-5.258296	387	-8.503485
-6.372239	387.360	-99
-5.527141	388	-99
-5.417996	389	-99
-6.372239	38ª	-99
-4.190395	39	-8.044273
-6.071208	39.458.000	-99
-5.196147	390	-99
-6.372239	390-s	-99
-5.168118	391	-8.719719
-5.594088	392	-7.451546
-6.071208	393	-7.451546
-6.372239	393-s	-99
-6.372239	39321	-99
-6.372239	39357	-99
-5.14179	394	-7.997096
-5.895117	39481	-99
-6.372239	39486	-99
-5.594088	395	-7.419106
-6.372239	39574	-99
-5.594088	396	-99
-6.372239	397	-99
-5.469149	398	-7.899006
-5.895117	399	-7.652416
-6.071208	39a	-99
-5.895117	39ª	-99
-6.372239	3véase	-99
-2.998591	4	-99
-6.372239	4.1	-99
-5.895117	4.10	-99
-6.372239	4.13	-99
-6.372239	4.14	-99
-6.372239	4.165.800	-99
-6.372239	4.171.359.700	-99
-6.372239	4.194.726.800	-99
-5.895117	4.2	-99
-6.372239	4.237.100	-99
-6.372239	4.25	-99
-6.372239	4.273.000	-99
-6.372239	4.3	-99
-6.372239	4.302.005.000	-99
-6.372239	4.371.700	-99
-6.372239	4.39	-99
-6.372239	4.393.500	-99
-6.071208	4.4	-99
-6.372239	4.5	-99
-6.372239	4.517.100	-99
-6.372239	4.521.450	-99
-6.372239	4.7	-99
-6.372239	4.797	-99
-6.372239	4.9	-99
-6.372239	4.966.000	-99
-4.261649	40	-7.648625
-5.770179	40.000	-99
-6.372239	40.200	-99
-6.071208	400	-7.463807
-6.071208	400.000	-99
-5.372239	401	-7.562319
-5.469149	402	-7.899006
-6.372239	40214	-99
-5.673269	403	-7.986409
-6.372239	404	-99
-6.372239	404.295.400	-99
-6.372239	40446	-99
-5.673269	405	-7.971427
-5.895117	406	-99
-6.071208	407	-7.451546
-5.770179	409	-7.906028
-5.895117	40906	-99
-5.895117	40ª	-99
-5.673269	40º	-99
-4.084437	41	-99
-6.372239	41,2	-99
-6.372239	41.011.800	-99
-5.770179	410	-7.899006
-5.770179	410.000	-99
-6.372239	410.036.100	-99
-5.770179	411	-7.259061
-5.093485	412	-8.053638
-6.071208	413	-7.451546
-6.372239	413.600	-99
-6.071208	414	-7.451546
-6.372239	414.429.600	-99
-5.469149	415	-7.595203
-6.372239	415.291.800	-99
-6.372239	415.340.500	-99
-5.770179	416	-7.899006
-6.372239	416-s	-99
-5.14179	417	-7.674255
-5.895117	418	-99
-5.330846	419	-8.15359
-6.071208	41a	-99
-6.372239	41ª	-99
-3.992028	42	-7.891762
-6.372239	42,23	-99
-6.071208	42.695.300	-99
-5.417996	420	-99
-5.22611	421	-99
-6.071208	42146	-99
-5.168118	422	-7.614827
-6.372239	422.053.500	-99
-5.770179	423	-7.902271
-5.330846	424	-7.529103
-5.14179	425	-8.137561
-5.196147	426	-8.035177
-6.071208	427	-99
-6.372239	427.355.200	-99
-5.330846	428	-7.680527
-6.372239	428-s	-99
-6.372239	428.977.800	-99
-5.770179	429	-7.270526
-6.372239	42ª	-99
-4.196147	43	-99
-6.372239	43.055.543	-99
-6.071208	43.066.850	-99
-6.071208	43.237.650	-99
-5.594088	430	-99
-5.594088	431	-7.962826
-5.594088	432	-7.974292
-6.071208	433	-7.473164
-5.770179	434	-7.451546
-6.372239	434.860.100	-99
-5.594088	436	-7.44318
-6.071208	437	-99
-6.372239	438	-99
-6.372239	438.366.800	-99
-5.895117	439	-99
-6.372239	43a	-99
-6.372239	43ª	-99
-6.372239	43º	-99
-4.050019	44	-99
-6.372239	44,2	-99
-6.372239	44.700	-99
-6.372239	44.927.300	-99
-5.673269	440	-7.991936
-5.895117	441	-99
-5.673269	442	-99
-5.168118	443	-7.437823
-5.895117	444	-99
-6.372239	445	-99
-5.469149	446	-7.59127
-5.527141	447	-99
-5.527141	448	-99
-5.469149	449	-8.502968
-6.071208	44a	-7.46944
-6.071208	44ª	-99
-6.071208	44º	-99
-4.033782	45	-99
-5.673269	450	-7.601962
-6.372239	450.202.500	-99
-5.895117	451	-99
-5.895117	452	-99
-5.330846	453	-7.660232
-5.469149	454	-8.197963
-5.594088	455	-7.972324
-5.527141	456	-99
-5.594088	457	-99
-5.293057	459	-99
-6.372239	45a	-99
-6.372239	45véase	-99
-6.372239	45ª	-99
-6.372239	45º	-99
-3.8851	46	-99
-6.372239	46,4	-99
-6.372239	46.414.900	-99
-5.673269	460	-99
-5.895117	461	-99
-5.196147	462	-8.233421
-6.071208	462.88.12s	-99
-5.168118	463	-8.148247
-5.527141	464	-99
-5.14179	465	-8.509501
-5.895117	466	-99
-6.372239	466.700	-99
-5.594088	467	-7.980784
-5.673269	467-s	-99
-5.594088	468	-7.981393
-6.372239	468.100	-99
-5.594088	469	-7.962826
-6.071208	46a	-7.477026
-5.594088	46ª	-99
-5.770179	46º	-99
-3.93133	47	-7.855838
-6.372239	47.759.100	-99
-6.071208	47.844.850	-99
-5.594088	470	-7.980784
-5.673269	471	-7.970103
-5.527141	472	-99
-5.895117	472-s	-99
-5.895117	473	-99
-5.770179	4739	-99
-5.594088	474	-7.419106
-5.594088	475	-7.451546
-6.372239	476	-99
-6.071208	477	-99
-5.010511	478	-7.734951
-5.594088	479	-7.980784
-6.071208	47ª	-99
-5.673269	47º	-99
-3.825696	48	-99
-6.372239	48,4	-99
-6.071208	48.13	-99
-6.071208	48.312.450	-99
-6.372239	48.700	-99
-5.417996	480	-99
-5.258296	481	-8.308961
-5.673269	482	-7.970103
-5.010511	483	-8.148706
-5.258296	484	-99
-5.293057	485	-7.757893
-6.372239	485.500	-99
-5.673269	486	-7.958665
-4.514906	486-s	-99
-5.372239	487	-7.997874
-6.372239	487-s	-99
-5.116966	488	-99
-5.168118	489	-8.719719
-6.372239	48a	-99
-6.372239	48ª	-99
-5.417996	48º	-99
-3.929759	49	-99
-6.372239	49.259.800	-99
-6.372239	49.961.500	-99
-5.417996	490	-99
-6.372239	4903	-99
-5.469149	491	-7.270526
-5.116966	492	-99
-6.372239	492.248.800	-99
-6.372239	493	-99
-5.258296	494	-99
-6.372239	494.887.000	-99
-5.527141	495	-99
-6.071208	496	-99
-4.709481	497	-8.757047
-5.527141	498	-99
-5.330846	499	-7.847277
-6.372239	49º	-99
-6.372239	4a	-99
-6.372239	4ª	-99
-3.05564	5	-7.679624
-6.372239	5,1	-99
-6.372239	5,43	-99
-6.372239	5,5	-99
-6.372239	5-7	-99
-6.372239	5.000	-99
-6.372239	5.077	-99
-6.372239	5.1	-99
-6.372239	5.11	-99
-6.372239	5.12	-99
-6.372239	5.14	-99
-6.372239	5.16	-99
-5.673269	5.2	-99
-6.372239	5.202.750	-99
-6.372239	5.234.553	-99
-6.372239	5.24	-99
-6.372239	5.25	-99
-6.071208	5.29	-7.466156
-5.895117	5.3	-99
-6.372239	5.310.100	-99
-6.372239	5.32	-99
-6.372239	5.33	-99
-6.372239	5.340.700	-99
-6.372239	5.385.700	-99
-6.372239	5.39	-99
-6.071208	5.4	-99
-6.071208	5.419.300	-99
-6.372239	5.428.116	-99
-6.372239	5.5	-99
-5.770179	5.6	-7.459881
-5.895117	5.8	-99
-6.372239	5.9	-99
-3.798208	50	-99
-5.673269	50.000	-99
-5.469149	500	-8.228492
-5.770179	500.000	-99
-5.895117	501	-99
-5.770179	502	-7.268559
-5.527141	503	-99
-5.895117	504	-99
-5.895117	505	-99
-5.527141	506	-99
-5.895117	507	-7.643829
-6.071208	508	-7.454811
-6.372239	5084ª	-99
-5.594088	509	-7.320711
-5.770179	50ª	-7.928933
-3.787907	51	-7.68392
-6.372239	51.276.000	-99
-6.372239	51.509.800	-99
-6.372239	51.899.313	-99
-4.992027	510	-8.630986
-5.469149	511	-99
-5.527141	512	-99
-5.673269	513	-7.9554
-5.895117	514	-99
-6.372239	514-s	-99
-5.469149	515	-7.899006
-6.372239	515.460.600	-99
-5.673269	5158	-99
-5.770179	516	-7.451546
-5.594088	517	-7.984049
-5.770179	518	-7.451546
-5.417996	519	-99
-5.895117	51a	-99
-6.372239	51ibíd	-99
-6.372239	51véase	-99
-6.372239	51ª	-99
-3.793599	52	-99
-6.372239	52.714.100	-99
-6.372239	520	-99
-5.594088	521	-7.446569
-5.770179	523	-7.451546
-5.895117	524	-99
-5.770179	525	-7.259061
-5.673269	526	-7.588197
-6.071208	527	-99
-5.594088	528	-99
-6.372239	528-s	-99
-4.709481	529	-8.252857
-5.22611	52a	-8.114185
-5.895117	52ª	-99
-3.699218	53	-99
-6.372239	53.047.600	-99
-6.071208	53.518.525	-99
-6.372239	53.633.300	-99
-5.770179	530	-7.899006
-5.770179	530-s	-99
-5.469149	531	-7.587346
-5.093485	532	-8.402297
-5.895117	533	-99
-5.469149	534	-7.340218
-5.770179	535	-7.451546
-5.22611	536	-99
-5.196147	537	-7.794509
-5.594088	538	-99
-5.527141	539	-99
-6.372239	539-s	-99
-5.417996	53ª	-99
-3.471326	54	-8.235862
-6.071208	54.14	-99
-5.770179	540	-7.274451
-6.071208	541	-99
-6.372239	542	-99
-5.673269	543	-7.9554
-5.673269	544	-7.9554
-5.895117	545	-99
-6.372239	546	-99
-6.071208	546-s	-99
-6.372239	546.051.600	-99
-5.258296	547	-99
-5.594088	548	-7.45952
-6.372239	548-s	-99
-6.372239	549	-99
-6.372239	54ª	-99
-6.372239	54º	-99
-3.045084	55	-99
-6.071208	550	-7.451546
-5.673269	551	-7.970103
-6.071208	552	-99
-5.673269	553	-7.589776
-5.770179	554	-7.899006
-5.895117	555	-7.635785
-5.372239	556	-7.599662
-5.673269	557	-99
-5.293057	558	-7.442998
-5.093485	559	-9.100363
-6.372239	55a	-99
-6.372239	55º	-99
-3.149782	56	-99
-5.895117	56-s	-99
-6.071208	56.1	-99
-6.071208	56.28	-99
-6.071208	56.29	-99
-6.372239	56.731.900	-99
-5.417996	560	-99
-5.116966	561	-99
-6.372239	561.900	-99
-5.594088	562	-7.446569
-5.372239	563	-7.60605
-6.071208	564	-7.443563
-5.469149	565	-7.57588
-5.527141	566	-99
-5.673269	567	-7.986409
-5.895117	568	-99
-5.594088	569	-7.44318
-5.895117	56a	-7.669068
-5.330846	56ª	-7.923748
-6.071208	56º	-99
-3.110025	57	-99
-6.372239	57.469.600	-99
-6.071208	570	-99
-5.527141	5700	-99
-5.417996	571	-99
-5.258296	572	-8.201347
-5.372239	573	-8.889189
-5.673269	573-s	-99
-5.372239	574	-7.567697
-6.372239	574-s	-99
-5.469149	575	-7.729173
-5.673269	576	-7.970103
-5.895117	577	-99
-6.071208	5778	-99
-5.116966	578	-8.744603
-5.372239	579	-7.385354
-4.957265	57a	-99
-6.071208	57º	-99
-3.162188	58	-8.778443
-6.372239	58.066.375	-99
-6.071208	58.2	-7.459412
-6.372239	58.300	-99
-5.469149	580	-99
-5.417996	581	-7.790419
-6.071208	581-s	-99
-5.22611	582	-99
-5.770179	583	-7.267054
-6.372239	583.800	-99
-5.673269	584	-7.991047
-5.895117	585	-99
-5.527141	586	-99
-5.895117	587	-99
-5.594088	588	-7.635785
-5.372239	589	-7.479465
-6.372239	58a	-99
-5.895117	58ª	-99
-5.895117	58º	-99
-6.372239	58ºe	-99
-3.176063	59	-99
-6.372239	59.038.300	-99
-5.673269	590	-7.982842
-6.372239	590.000	-99
-5.093485	591	-99
-5.673269	592	-7.973368
-5.168118	593	-8.269676
-5.673269	595	-8.012136
-5.673269	596	-7.60245
-5.673269	597	-7.9554
-5.895117	598	-7.651175
-6.071208	599	-7.451546
-6.071208	59a	-99
-6.071208	59ª	-99
-6.372239	59º	-99
-6.372239	59ºe	-99
-5.770179	5e	-99
-6.071208	5ibíd	-99
-6.372239	5j	-99
-6.071208	5k	-7.465571
-6.071208	5l	-7.465571
-3.067102	6	-8.11416
-6.372239	6,4	-99
-5.895117	6,5	-99
-6.372239	6.069.700	-99
-6.071208	6.392.600	-99
-6.372239	6.6	-99
-6.372239	6.863.750	-99
-6.372239	6.865.300	-99
-6.372239	6.sobre	-99
-3.197307	60	-9.239431
-6.372239	60,13	-99
-5.258296	60-s	-99
-6.372239	60.000	-99
-6.372239	60.039.000	-99
-6.372239	60.18	-99
-6.071208	60.187.150	-99
-5.673269	600	-8.002776
-5.770179	601	-7.451546
-5.527141	602	-99
-5.417996	603	-8.121806
-5.770179	604	-7.899006
-5.469149	605	-9.602053
-5.14179	606	-8.362777
-5.673269	608	-99
-5.770179	608-s	-99
-6.071208	609	-99
-6.372239	60a	-99
-6.372239	60ª	-99
-6.071208	60º	-7.480681
-3.26266	61	-99
-5.895117	61,6	-99
-6.071208	61-e	-99
-6.071208	61.089.600	-99
-6.372239	61.600	-99
-6.071208	61.722.500	-99
-5.673269	610	-7.592835
-6.071208	611	-7.458568
-5.673269	612	-7.588197
-5.895117	613	-99
-6.071208	614	-7.458663
-5.594088	615	-99
-5.469149	616	-8.205947
-6.372239	617	-99
-6.372239	618	-99
-5.895117	619	-99
-6.372239	6193	-99
-6.071208	61a	-7.477026
-4.815936	61ª	-99
-3.3819	62	-99
-6.071208	62.434.375	-99
-5.895117	620	-99
-5.895117	621	-99
-6.372239	621-s	-99
-6.071208	622	-7.462965
-6.372239	623	-99
-5.895117	624	-99
-5.594088	625	-7.97708
-5.673269	626	-99
-6.372239	628	-99
-6.372239	629	-99
-6.071208	62a	-7.46944
-4.925081	62ª	-99
-6.071208	62º	-7.454823
-4.381012	63	-7.22179
-6.372239	63-e	-99
-6.071208	63.045.250	-99
-6.071208	630	-99
-6.372239	631	-99
-6.372239	632	-99
-5.594088	633	-99
-6.071208	633-s	-99
-5.050019	634	-99
-6.071208	635	-99
-5.594088	636	-7.635785
-5.673269	637	-99
-6.372239	637.300	-99
-6.372239	638	-99
-6.372239	639	-99
-6.372239	639-s	-99
-5.895117	63a	-99
-4.559325	64	-99
-6.372239	64.275.950	-99
-6.372239	64.648.400	-99
-6.071208	640	-7.443563
-6.372239	640.000	-99
-6.071208	641	-99
-6.071208	642	-99
-6.372239	642-s	-99
-5.895117	643	-99
-6.071208	644	-99
-5.895117	645	-99
-6.372239	646	-99
-6.071208	647	-99
-5.469149	648	-7.738788
-5.770179	649	-7.899006
-6.372239	64a	-99
-5.196147	64ª	-99
-4.594088	65	-7.520855
-6.071208	65-e	-99
-6.071208	65.656.200	-99
-5.770179	650	-7.907081
-5.673269	651	-99
-5.673269	652	-99
-5.594088	653	-99
-6.071208	654	-99
-5.895117	655	-99
-6.071208	656	-99
-5.770179	657	-7.259061
-5.258296	658	-99
-5.770179	659	-7.899006
-6.372239	65a	-99
-5.168118	65ª	-99
-4.552695	66	-99
-6.071208	660	-7.451546
-5.673269	661	-7.610624
-6.071208	663	-99
-6.071208	664	-99
-5.594088	665	-7.44318
-5.895117	666	-99
-6.372239	667	-99
-5.770179	667-s	-99
-5.895117	669	-99
-6.372239	66véase	-99
-5.071208	66ª	-99
-4.566059	67	-7.298686
-6.372239	67-e	-99
-6.071208	67.439.600	-99
-6.372239	674	-99
-5.895117	676	-99
-6.071208	678	-99
-6.071208	67a	-99
-6.372239	67ibíd	-99
-6.372239	67véase	-99
-5.168118	67ª	-99
-4.44282	68	-99
-6.372239	68-e	-99
-6.071208	68.031.400	-99
-6.372239	681	-99
-6.372239	681-s	-99
-6.071208	682	-99
-6.372239	683	-99
-5.770179	685	-7.458568
-5.673269	687	-7.962422
-5.594088	688	-99
-6.071208	689	-7.451546
-4.682043	68ª	-99
-4.594088	69	-9.516748
-6.071208	69.123.700	-99
-6.071208	69.577.475	-99
-5.372239	690	-8.896305
-6.372239	691	-99
-6.372239	692	-99
-6.372239	694	-99
-6.372239	695	-99
-6.372239	697	-99
-6.372239	699-s	-99
-4.992027	69a	-99
-5.050019	69ª	-99
-5.895117	6a	-99
-6.372239	6véase	-99
-3.118901	7	-7.562027
-6.372239	7,2	-99
-6.372239	7,3	-99
-6.372239	7.377.600	-99
-6.372239	7.451.064	-99
-6.372239	7.546.100	-99
-6.372239	7.854.800	-99
-4.408451	70	-99
-6.372239	70.000	-99
-6.372239	700.000	-99
-6.372239	701	-99
-5.895117	702	-99
-6.372239	703	-99
-6.372239	705	-99
-5.770179	707	-7.46944
-6.372239	709	-99
-6.372239	70a	-99
-4.52098	71	-99
-6.372239	71-e	-99
-6.071208	71.124.250	-99
-5.673269	710	-7.588197
-6.372239	711	-99
-5.770179	712	-7.899006
-5.895117	713	-99
-6.372239	714	-99
-6.372239	715	-99
-5.895117	717	-99
-6.071208	718	-99
-6.372239	71a	-99
-4.940875	71ª	-99
-4.53339	72	-7.774254
-6.372239	72-e	-99
-6.071208	721	-7.46944
-6.372239	722	-99
-6.372239	723	-99
-5.527141	724	-99
-6.071208	725	-99
-6.372239	726	-99
-6.372239	727	-99
-6.372239	728	-99
-4.639845	729	-99
-6.372239	72véase	-99
-5.029816	72ª	-99
-4.248387	73	-7.965704
-5.895117	73-e	-99
-6.071208	730	-99
-6.372239	731	-99
-6.071208	733	-7.467573
-6.372239	734	-99
-6.071208	735	-7.45288
-5.469149	736	-8.506939
-6.071208	737	-7.448985
-5.895117	738	-99
-6.372239	739	-99
-5.330846	73a	-99
-6.372239	73ibíd	-99
-5.673269	73ª	-99
-4.52098	74	-99
-6.372239	74.322.400	-99
-6.372239	74.384.900	-99
-6.372239	741	-99
-6.071208	742	-99
-6.372239	743	-99
-5.895117	747	-99
-6.372239	748	-99
-6.372239	748.200	-99
-5.050019	74ª	-99
-4.144352	75	-99
-5.895117	75-e	-99
-5.895117	75.000	-99
-6.372239	750	-99
-6.372239	750.000	-99
-6.372239	758	-99
-6.372239	759	-99
-5.527141	759-s	-99
-4.73877	75ª	-99
-4.432719	76	-99
-6.071208	76-e	-99
-6.071208	76.221.950	-99
-6.372239	76.659.100	-99
-5.770179	763	-7.259061
-5.372239	763-s	-99
-6.372239	765.100	-99
-5.895117	767	-99
-5.895117	769	-99
-6.372239	769-s	-99
-6.372239	76a	-99
-4.957265	76ª	-99
-4.201977	77	-7.574427
-5.895117	77-e	-99
-6.372239	770	-99
-6.372239	773	-99
-6.372239	778	-99
-4.925081	77ª	-99
-4.616364	78	-99
-6.372239	78.500	-99
-6.071208	78.995.675	-99
-5.895117	780	-99
-6.372239	783	-99
-6.071208	785	-7.451546
-6.071208	787	-99
-6.372239	789	-99
-4.792455	78a	-99
-4.463754	78ª	-99
-4.673269	79	-99
-6.372239	79-e	-99
-6.372239	790	-99
-5.469149	790-s	-99
-6.372239	792ª	-99
-4.53339	79ª	-99
-4.759455	7a	-99
-3.094171	8	-7.965907
-6.372239	8,7	-99
-6.372239	8.007.450	-99
-6.372239	8.081.900	-99
-6.071208	8.12	-7.470271
-6.071208	8.14	-7.470271
-6.071208	8.18	-7.470271
-6.372239	8.183.100	-99
-6.372239	8.3	-99
-6.372239	8.31	-99
-6.071208	8.39	-7.471377
-6.372239	8.741.600	-99
-4.485748	80	-8.458828
-6.071208	80-e	-99
-6.372239	80.770.800	-99
-6.071208	800	-7.459621
-6.071208	800.000	-99
-6.071208	801	-7.451546
-6.372239	804	-99
-6.372239	805	-99
-5.895117	809	-99
-5.527141	80a	-99
-6.372239	80ibíd	-99
-4.594088	81	-7.599221
-6.071208	81-e	-99
-6.372239	81.246.800	-99
-6.071208	81.300.850	-99
-6.372239	81.600	-99
-6.372239	81.708.200	-99
-6.372239	81.965.400	-99
-6.372239	814	-99
-5.293057	815	-99
-5.770179	817	-7.906028
-5.258296	81a	-99
-6.372239	81véase	-99
-5.895117	81ª	-99
-4.608811	82	-7.55383
-5.673269	82-e	-99
-5.770179	821-gc	-99
-6.372239	822	-99
-6.071208	823	-7.451546
-6.372239	823-e	-99
-5.770179	826	-7.267444
-5.673269	82a	-8.020501
-5.293057	82ª	-99
-4.647963	83	-99
-5.895117	83-e	-99
-6.071208	834	-99
-6.071208	835	-99
-6.372239	839	-99
-5.168118	83a	-8.22384
-4.974298	83ª	-99
-4.709481	84	-99
-6.071208	84-e	-99
-6.372239	84.961.407	-99
-5.770179	840	-7.922818
-6.071208	841	-99
-5.469149	845	-99
-6.372239	846	-99
-5.895117	848	-99
-6.071208	849	-7.451546
-5.469149	84a	-99
-5.010511	84ª	-99
-4.700141	85	-99
-6.372239	85-e	-99
-6.372239	850	-99
-6.071208	853	-99
-6.372239	853-e	-99
-6.372239	855	-99
-6.372239	859	-99
-5.673269	85a	-7.973294
-5.330846	85ª	-99
-4.673269	86	-8.108991
-5.673269	86-e	-99
-6.372239	86.301.300	-99
-6.372239	86.758.400	-99
-6.071208	86.940.250	-99
-6.372239	861	-99
-6.372239	863	-99
-6.372239	8638	-99
-6.372239	8640	-99
-5.895117	866	-99
-5.673269	86a	-8.020501
-4.624051	87	-7.993533
-5.770179	87-e	-99
-6.071208	87.344.825	-99
-6.372239	871	-99
-4.867089	871-s	-99
-6.372239	873	-99
-5.673269	874	-7.962119
-5.770179	875	-99
-6.372239	877	-99
-6.372239	879	-99
-6.372239	879.200	-99
-5.258296	8791	-99
-4.880877	87a	-8.021243
-4.700141	88	-7.8842
-6.071208	88-e	-99
-6.071208	88.605.150	-99
-6.372239	880	-99
-6.071208	8843	-99
-6.372239	886	-99
-6.372239	889	-99
-5.895117	889-s	-99
-5.770179	88a	-7.916899
-5.417996	88ª	-99
-4.682043	89	-99
-5.594088	89-e	-99
-6.372239	89.563.100	-99
-6.372239	890	-99
-6.372239	898-s	-99
-5.050019	89a	-99
-6.372239	89ibíd	-99
-6.372239	8ª	-99
-3.171662	9	-99
-6.372239	9,7	-99
-6.372239	9,9	-99
-6.372239	9.1.4	-99
-6.071208	9.115.500	-99
-6.372239	9.12	-99
-6.372239	9.16	-99
-6.372239	9.190.200	-99
-6.372239	9.21	-99
-6.372239	9.22	-99
-6.372239	9.3	-99
-6.372239	9.30	-99
-6.372239	9.406.800	-99
-6.071208	9.418.200	-99
-6.372239	9.432.500	-99
-6.372239	9.62	-99
-6.372239	9.9	-99
-4.422849	90	-99
-5.594088	90-e	-99
-6.071208	90.148.375	-99
-6.071208	900	-99
-6.372239	901	-99
-6.372239	903	-99
-5.417996	904	-99
-5.168118	9068	-99
-6.372239	909	-99
-4.84076	90ª	-99
-4.639845	91	-7.982498
-6.372239	91.722.700	-99
-5.527141	913	-99
-5.770179	914	-99
-6.372239	916	-99
-5.770179	917-s	-99
-6.372239	91ª	-99
-4.639845	92	-7.423586
-6.372239	92-e	-99
-5.895117	922	-99
-6.071208	925	-99
-5.469149	928	-99
-6.071208	92a	-99
-4.909841	92ª	-99
-4.770179	93	-8.418439
-6.071208	93,7	-99
-6.071208	93-e	-99
-6.372239	930	-99
-5.417996	932	-99
-4.608811	94	-7.927061
-6.372239	94-e	-99
-6.372239	94.621.400	-99
-6.071208	944	-99
-6.372239	9464	-99
-6.372239	947	-99
-4.656235	95	-99
-6.071208	95-e	-99
-6.372239	95.200	-99
-6.071208	95.883.600	-99
-6.071208	950	-7.458568
-6.372239	953-s	-99
-6.372239	956	-99
-5.895117	957	-99
-4.608811	96	-7.419351
-6.071208	96-e	-99
-6.372239	96.443.900	-99
-6.372239	960	-99
-6.372239	969.468.800	-99
-6.372239	96a	-99
-4.709481	97	-7.445446
-6.071208	97-e	-99
-4.974298	970	-99
-4.207886	973	-99
-6.372239	979	-99
-6.372239	97a	-99
-4.74899	98	-99
-5.895117	98-e	-99
-6.372239	98-s	-99
-6.071208	98.050.450	-99
-6.372239	98.338.700	-99
-6.372239	980	-99
-6.372239	983	-99
-5.469149	984	-99
-5.895117	985-s	-99
-5.895117	986	-99
-5.770179	987	-7.274451
-6.372239	988	-99
-5.673269	989	-99
-4.73877	99	-99
-6.071208	99-e	-99
-6.372239	992.600	-99
-6.372239	992.771.819	-99
-6.372239	993-s	-99
-6.071208	996	-99
-6.372239	998.600	-99
-5.372239	999	-7.9554
-6.372239	99ibíd	-99
-6.372239	99véase	-99
-6.372239	9a	-99
-6.372239	9ª	-99
-2.880457	:	-99
-1.978874	;	-9.56392
-5.417996	<	-99
-1.603689	</s>
-99	<s>	-99
-5.196147	=	-7.999414
-5.417996	>	-99
-4.656235	[	-99
-4.656235	]	-8.045137
-4.759455	_	-99
-1.637375	a	-99
-6.372239	a.1002	-99
-6.071208	a.23	-99
-6.372239	a.3	-99
-5.770179	a.949	-99
-6.372239	a.979	-99
-6.372239	a1	-99
-6.372239	a2	-99
-6.372239	a3	-99
-6.372239	a4	-99
-6.372239	a5	-99
-5.673269	aa	-7.973368
-5.770179	abajo	-7.907107
-5.594088	abandonado	-99
-5.527141	abandonados	-99
-4.992027	abandonar	-9.417462
-5.258296	abandono	-8.036421
-5.050019	abarca	-99
-6.372239	abarcado	-99
-5.417996	abarcados	-8.141559
-6.071208	abarcan	-7.472488
-5.527141	abarcar	-99
-6.372239	abarcara	-99
-5.770179	abarcarán	-7.259763
-6.372239	abarcaría	-99
-6.372239	abarcase	-99
-5.258296	abarque	-99
-6.071208	abarquen	-7.480754
-5.196147	abastecimiento	-7.758815
-5.196147	abeba	-7.282133
-6.071208	aberrantes	-99
-6.372239	abertura	-99
-4.304053	abierta	-99
-6.372239	abierta.581	-99
-5.770179	abiertamente	-7.164757
-5.010511	abiertas	-99
-4.52098	abierto	-99
-5.010511	abiertos	-99
-6.372239	abióticos	-99
-6.372239	abjasia	-99
-6.372239	abogado	-99
-5.196147	abogados	-7.594758
-5.258296	abolición	-99
-5.673269	abolido	-99
-5.372239	abolir	-7.484787
-6.071208	abolirla	-7.481807
-6.372239	abolirá	-99
-5.673269	abominable	-7.962639
-6.372239	abonado	-99
-6.372239	abonar	-99
-6.372239	abonen	-99
-6.372239	aborda	-99
-6.372239	abordadas	-99
-6.372239	abordados	-99
-6.372239	abordan	-99
-5.673269	abordando	-7.378731
-4.363638	abordar	-7.595511
-6.071208	abordara	-7.449221
-6.071208	abordarlo	-99
-5.417996	abordarse	-7.775378
-6.372239	abordarán	-99
-5.196147	aborde	-7.057385
-5.029816	aborden	-7.490407
-6.372239	aborrecible	-99
-6.372239	aborrecibles	-99
-5.895117	abortos	-99
-5.770179	abra	-99
-5.372239	abran	-99
-5.527141	abre	-99
-5.527141	abren	-99
-5.673269	abriendo	-7.623506
-6.372239	abrieron	-99
-5.673269	abriga	-99
-6.372239	abrigo	-99
-3.748989	abril	-8.823713
-5.895117	abrir	-7.682046
-4.992027	abrió	-99
-6.372239	abrumadora	-99
-5.196147	absoluta	-7.349969
-6.071208	absolutamente	-7.481638
-6.372239	absoluto	-99
-6.372239	absolutos	-99
-6.071208	absorban	-7.478314
-6.071208	absorber	-7.471539
-3.667231	abstenciones	-7.860023
-5.168118	abstención	-8.301603
-6.372239	abstendrán	-99
-6.071208	abstener	-99
-4.804037	abstenerse	-7.948608
-5.293057	abstenga	-99
-4.413198	abstengan	-99
-6.372239	absteniéndose	-99
-6.372239	abstuvieran	-99
-5.594088	abu-ghneim	-7.966228
-6.071208	abu-ghunaym	-7.443563
-4.925081	abuja	-8.183255
-6.071208	abujavéase	-99
-6.372239	abundancia	-99
-6.372239	abundante	-99
-5.770179	abusan	-99
-6.071208	abuse	-99
-6.071208	abusiva	-99
-6.071208	abusivas	-99
-4.586909	abuso	-8.421827
-4.394515	abusos	-7.738192
-5.093485	ac.105	-99
-4.624051	ac.109	-99
-6.071208	ac.154	-99
-6.372239	ac.172	-99
-6.372239	ac.182	-99
-4.940875	ac.198	-99
-6.372239	ac.251	-99
-6.071208	ac.254	-99
-6.372239	ac.259	-99
-6.372239	ac.265	-99
-6.372239	ac.268	-99
-6.372239	ac.51	-99
-6.071208	acaban	-99
-5.372239	acabar	-99
-6.372239	acabarán	-99
-5.417996	academia	-99
-5.116966	académica	-7.56181
-4.974298	académicas	-7.58885
-5.770179	académico	-99
-5.417996	académicos	-99
-5.895117	acaecidos	-99
-6.071208	acarrea	-7.471654
-6.372239	acarreados	-99
-6.372239	acarrean	-99
-5.770179	acarrear	-7.92916
-6.071208	acarrearles	-99
-6.372239	acarree	-99
-6.071208	acatamiento	-99
-5.527141	acatar	-99
-5.469149	acatará	-99
-5.895117	acaten	-7.656423
-6.372239	acceda	-99
-6.071208	accedan	-99
-5.14179	acceder	-7.788214
-5.168118	accesibilidad	-7.007893
-5.093485	accesible	-7.345124
-6.071208	accesibleresolución	-99
-5.029816	accesibles	-7.201813
-6.372239	accesión	-99
-3.548113	acceso	-99
-6.372239	accesovéase	-99
-6.071208	accident	-99
-5.168118	accidental	-8.116664
-5.258296	accidentalmente	-8.26658
-5.093485	accidente	-7.855728
-4.992027	accidentes	-7.87793
-4.363638	acciones	-7.955439
-5.594088	accionistas	-7.305491
-3.170568	acción	-7.711004
-6.372239	acción.564	-99
-6.372239	acción.582	-99
-5.469149	accióna	-99
-6.071208	acciónibíd	-99
-5.372239	acciónresolución	-7.632535
-5.895117	acciónvéase	-7.648124
-6.071208	accra	-7.465147
-6.372239	acelera	-99
-5.14179	aceleración	-7.651665
-5.330846	acelerada	-7.875246
-5.330846	acelerado	-8.200969
-5.895117	acelerando	-99
-4.485748	acelerar	-99
-6.372239	acelerara	-99
-4.792455	acelere	-99
-5.093485	aceleren	-7.4422
-6.372239	acentuación	-99
-6.372239	acentuado	-99
-6.372239	acentuando	-99
-5.168118	acepta	-7.396194
-4.792455	aceptable	-8.513144
-4.759455	aceptables	-99
-5.196147	aceptaciones	-7.984106
-4.210871	aceptación	-99
-5.22611	aceptada	-99
-5.372239	aceptadas	-7.46604
-4.895117	aceptado	-7.628626
-4.880877	aceptados	-7.383398
-5.895117	aceptan	-99
-5.673269	aceptando	-7.952883
-5.010511	aceptar	-99
-5.895117	aceptaron	-99
-6.372239	aceptarse	-99
-6.372239	aceptará	-99
-4.880877	acepte	-7.682786
-5.372239	acepten	-8.493521
-6.071208	aceptó	-99
-3.786778	acerca	-99
-5.673269	acercamiento	-7.946997
-6.372239	acercan	-99
-6.372239	acercando	-99
-6.372239	acercar	-99
-6.071208	acertada	-7.447806
-6.071208	acertadas	-7.443563
-6.372239	acertados	-99
-5.293057	acervo	-99
-5.673269	acervos	-99
-6.372239	acidificación	-99
-6.372239	ación	-99
-6.372239	aclaración	-99
-5.168118	aclarar	-7.507432
-5.372239	aclare	-8.040093
-6.372239	aclaren	-99
-6.071208	acnudh	-7.479943
-6.071208	acnur	-99
-3.176616	acoge	-99
-5.469149	acogemos	-99
-5.417996	acogen	-99
-4.84076	acoger	-7.69289
-5.527141	acogerse	-99
-6.071208	acogerá	-7.460215
-6.071208	acogería	-99
-4.594088	acogida	-7.629914
-5.22611	acogido	-99
-6.372239	acogidos	-99
-3.422849	acogiendo	-99
-5.895117	acogieron	-99
-4.992027	acogió	-99
-5.895117	acogía	-99
-6.372239	acogían	-99
-6.372239	acoja	-99
-6.372239	acojan	-99
-6.071208	acompañaa	-99
-5.417996	acompañada	-8.110868
-6.071208	acompañadas	-7.419963
-4.940875	acompañados	-7.854239
-5.594088	acompañamiento	-99
-5.673269	acompañan	-7.597083
-6.372239	acompañar	-99
-6.372239	acompañarse	-99
-6.372239	acompañará	-99
-6.372239	aconsejable	-99
-6.372239	aconsejaría	-99
-6.372239	aconsejen	-99
-5.895117	acontecido	-99
-5.071208	acontecimiento	-7.119541
-4.149522	acontecimientos	-99
-5.895117	acopio	-99
-5.527141	acordada	-99
-4.992027	acordadas	-7.623054
-4.74899	acordado	-7.678269
-4.925081	acordados	-99
-6.372239	acordados.612	-99
-5.372239	acordar	-8.025657
-5.469149	acordaron	-99
-6.071208	acordarán	-7.456077
-5.196147	acorde	-8.078358
-5.116966	acordes	-99
-5.372239	acordó	-7.400445
-5.895117	acortar	-99
-4.974298	acoso	-7.757085
-5.895117	acotación	-99
-6.372239	acrecentado	-99
-6.372239	acrecentamiento	-99
-6.372239	acrecentando	-99
-5.527141	acrecentar	-99
-6.372239	acreciente	-99
-5.330846	acrecienten	-7.862168
-5.895117	acreditables	-99
-5.010511	acreditación	-99
-5.293057	acreditadas	-99
-5.895117	acreditados	-99
-5.895117	acredite	-99
-5.372239	acrediten	-7.960901
-6.372239	acreedor	-99
-4.656235	acreedores	-7.963935
-6.372239	acrónimo	-99
-5.168118	acta	-7.481736
-4.527141	actas	-8.159639
-6.372239	acting	-99
-5.071208	actitud	-7.421469
-4.728786	actitudes	-7.937446
-4.32302	activa	-99
-6.372239	activación	-99
-4.020056	activamente	-7.471421
-6.372239	activará	-99
-5.22611	activas	-99
-4.152131	actividad	-99
-2.799019	actividades	-7.570084
-6.372239	actividades.565	-99
-6.372239	actividades.573	-99
-6.372239	actividades.583	-99
-6.372239	actividades.585	-99
-6.372239	actividades.593	-99
-6.372239	actividades.600	-99
-6.372239	actividades.605	-99
-6.372239	actividades.613	-99
-6.372239	actividades.623	-99
-6.372239	actividades.625	-99
-6.372239	actividadesvéase	-99
-5.594088	activistas	-7.293933
-4.73877	activo	-99
-4.275329	activos	-7.886289
-4.285879	acto	-99
-5.258296	actores	-99
-3.554013	actos	-8.061092
-6.372239	actos.562	-99
-4.719026	actuaciones	-8.222408
-4.974298	actuación	-7.892962
-5.527141	actuado	-99
-4.037785	actual	-7.72593
-6.372239	actuala	-99
-4.285879	actuales	-99
-4.992027	actualice	-7.68293
-5.594088	actualicen	-7.336987
-5.029816	actualidad	-7.413336
-6.071208	actualizaciones	-7.458838
-5.071208	actualización	-7.690231
-4.867089	actualizada	-8.130909
-5.372239	actualizadas	-7.397023
-4.925081	actualizado	-7.796012
-5.14179	actualizados	-7.263112
-5.071208	actualizando	-7.613612
-5.168118	actualizar	-7.838132
-6.071208	actualizara	-99
-6.372239	actualizaría	-99
-4.44282	actualmente	-99
-4.925081	actuando	-99
-4.664669	actuar	-99
-5.895117	actuara	-99
-6.372239	actuaremos	-99
-5.293057	actuarial	-99
-5.594088	actuariales	-99
-5.594088	actuario	-99
-5.258296	actuarios	-99
-6.071208	actuaron	-99
-5.673269	actuará	-8.017215
-5.770179	actuarán	-7.914544
-5.330846	actúa	-8.188127
-5.22611	actúan	-99
-5.050019	actúe	-99
-5.14179	actúen	-7.55936
-6.372239	acuartelamiento	-99
-5.770179	acuciante	-7.891136
-5.417996	acuciantes	-99
-6.372239	acuerda	-99
-5.673269	acuerdan	-7.975852
-6.372239	acuerde	-99
-5.372239	acuerden	-7.599376
-3.391327	acuerdo	-7.612316
-6.372239	acuerdo.596	-99
-6.372239	acuerdo172	-99
-6.372239	acuerdoa	-99
-6.372239	acuerdoinstrumentos	-99
-6.372239	acuerdonaciones	-99
-3.480144	acuerdos	-99
-6.071208	acuerdoss	-99
-6.372239	acuerdovéase	-99
-5.527141	acuicultura	-99
-6.372239	acumulaciones	-99
-5.168118	acumulación	-7.437842
-5.770179	acumulada	-7.258629
-6.372239	acumulado	-99
-5.469149	acumulados	-8.218369
-6.372239	acumulando	-99
-5.594088	acumular	-7.672073
-5.770179	acumulen	-99
-5.372239	acusaciones	-8.881814
-6.372239	acusación	-99
-5.673269	acusada	-7.938039
-6.071208	acusadas	-7.4623
-5.673269	acusado	-7.572895
-5.372239	acusados	-7.474969
-5.895117	acuíferos	-99
-4.53973	ad	-7.857312
-6.372239	adama	-99
-6.071208	adaptaciones	-7.481663
-5.14179	adaptación	-7.23353
-5.594088	adaptando	-7.332206
-5.258296	adaptar	-8.122558
-6.372239	adaptarlas	-99
-6.372239	adaptarlos	-99
-5.673269	adaptarse	-7.975501
-6.372239	adaptaría	-99
-5.527141	adapten	-99
-6.071208	add	-99
-3.658748	add.1	-7.664953
-5.895117	add.1-e	-99
-5.770179	add.10	-7.919545
-5.770179	add.11	-7.280371
-5.770179	add.12	-7.280371
-6.372239	add.123	-99
-6.071208	add.15	-99
-6.071208	add.16	-99
-6.372239	add.17	-99
-6.372239	add.18	-99
-4.447959	add.2	-99
-6.372239	add.21	-99
-6.071208	add.23	-99
-6.372239	add.237	-99
-6.372239	add.24	-99
-6.372239	add.25	-99
-6.071208	add.29	-99
-4.728786	add.3	-8.707428
-5.673269	add.32	-7.977018
-4.867089	add.4	-99
-4.974298	add.5	-8.80871
-5.293057	add.6	-99
-5.258296	add.7	-8.099587
-5.417996	add.8	-8.125239
-5.895117	add.9	-99
-5.196147	addis	-99
-4.126726	adecuada	-7.466815
-6.372239	adecuada.576	-99
-4.781174	adecuadamente	-99
-4.190395	adecuadas	-8.114107
-6.372239	adecuadas.562	-99
-4.469149	adecuado	-7.212681
-4.326916	adecuados	-7.9362
-6.372239	adecuar	-99
-6.372239	adecuarlas	-99
-5.895117	adecuarse	-99
-6.372239	adecuará	-99
-6.372239	adecue	-99
-5.673269	adecuen	-7.621883
-6.372239	adecúe	-99
-6.372239	adecúen	-99
-5.527141	adelantado	-99
-3.785651	adelantados	-99
-6.372239	adelantados.550	-99
-6.372239	adelantados.580	-99
-6.071208	adelantadosa	-99
-6.071208	adelantadosdocumentos	-99
-4.527141	adelante	-8.229702
-4.381012	adelanto	-99
-4.690998	adelantos	-8.440171
-3.332824	además	-99
-6.071208	adeptos	-99
-6.071208	adeudada	-7.460171
-4.957265	adeudadas	-8.750149
-6.372239	adeudado	-99
-6.071208	adeudados	-99
-5.895117	adeudan	-99
-4.546164	adherido	-8.178722
-6.372239	adherirnos	-99
-4.355206	adherirse	-8.483774
-4.895117	adhesiones	-7.597457
-4.020056	adhesión	-8.034361
-4.895117	adhiera	-99
-4.53973	adhieran	-99
-6.071208	adhieren	-99
-6.372239	adhiriera	-99
-6.372239	adhirieran	-99
-5.770179	adicción	-7.456858
-4.311541	adicional	-99
-6.372239	adicional.553	-99
-4.016213	adicionales	-8.113806
-6.372239	adicionales.563	-99
-5.770179	adicionalesibíd	-99
-5.895117	adiciones	-7.674715
-4.828171	adición	-99
-5.895117	adictos	-99
-4.974298	adiestramiento	-99
-6.071208	adiestrar	-7.456091
-5.770179	adjudicaciones	-7.238654
-5.770179	adjudicación	-7.87497
-6.071208	adjunta	-7.437175
-4.792455	adjunto	-9.288739
-6.372239	adjuntos	-99
-3.563353	administración	-99
-6.071208	administraciónibíd	-99
-5.895117	administraciónvéase	-99
-6.071208	administrada	-99
-5.770179	administrado	-7.888779
-4.992027	administrador	-7.413299
-3.775642	administradora	-7.525948
-4.035779	administradoras	-7.562631
-5.372239	administradores	-7.437036
-5.527141	administrados	-99
-5.258296	administrar	-99
-4.925081	administrarán	-99
-4.673269	administrativa	-99
-4.146929	administrativas	-7.8153
-4.474612	administrativo	-7.281073
-3.804037	administrativos	-99
-4.867089	administre	-99
-5.895117	administren	-99
-5.895117	admisibilidad	-99
-5.469149	admisible	-7.602747
-4.73877	admisión	-99
-5.673269	admita	-99
-5.22611	admite	-99
-5.770179	admiten	-7.481802
-5.770179	admitida	-7.91691
-5.417996	admitido	-99
-6.372239	admitiendo	-99
-5.469149	admitir	-7.471675
-6.071208	admitirla	-99
-6.372239	admitirse	-99
-6.071208	admitirá	-99
-6.372239	admitirán	-99
-5.895117	adn	-99
-4.853725	adolescentes	-8.038876
-5.293057	adopciones	-7.596417
-3.753145	adopción	-99
-5.895117	adopta	-7.635914
-4.254967	adoptada	-99
-3.561334	adoptadas	-99
-4.22302	adoptado	-99
-5.029816	adoptados	-7.452029
-5.372239	adoptan	-7.521455
-4.165413	adoptando	-99
-3.638239	adoptar	-7.683656
-5.417996	adoptara	-99
-5.469149	adoptaran	-7.620645
-6.372239	adoptaremos	-99
-6.372239	adoptares	-99
-5.417996	adoptaron	-8.155456
-4.815936	adoptarse	-7.776078
-4.453161	adoptará	-7.810853
-4.804037	adoptarán	-99
-6.372239	adoptase	-99
-6.071208	adoptasen	-99
-4.1292	adopte	-8.16788
-3.557991	adopten	-99
-5.116966	adoptó	-7.583367
-5.258296	adormidera	-7.579883
-6.071208	adpic	-99
-5.527141	adquiera	-99
-5.116966	adquieran	-99
-5.895117	adquiere	-99
-6.372239	adquieren	-99
-4.552695	adquirida	-7.407863
-5.372239	adquiridas	-7.496973
-5.594088	adquirido	-7.287994
-5.093485	adquiridos	-8.616984
-4.546164	adquirir	-99
-6.372239	adquirirá	-99
-4.403756	adquisiciones	-7.418408
-6.372239	adquisiciones.576	-99
-6.071208	adquisicionesa	-99
-6.372239	adquisicionesvéase	-99
-4.22302	adquisición	-99
-6.071208	adquisitivo	-7.439189
-5.895117	adriático	-99
-6.372239	adscribir	-99
-6.372239	adscripciones	-99
-5.895117	adscripción	-7.617537
-6.372239	adscritas	-99
-6.071208	adscrito	-99
-6.372239	aduana	-99
-5.594088	aduanas	-7.324645
-5.673269	aduanera	-7.626866
-6.372239	aducidos	-99
-6.372239	aduciendo	-99
-6.372239	aducir	-99
-6.372239	adultas	-99
-6.372239	adulto	-99
-5.071208	adultos	-7.323436
-6.372239	adultos.563	-99
-6.372239	aduzca	-99
-6.372239	adventista	-99
-5.770179	adversa	-7.915423
-6.372239	adversamente	-99
-6.372239	adversarios	-99
-4.940875	adversas	-7.051602
-5.029816	adversos	-7.374618
-6.071208	advertencia	-7.439424
-6.372239	advierte	-99
-5.14179	advisory	-99
-5.029816	adyacentes	-8.022903
-6.071208	aerolíneas	-99
-6.071208	aeronave	-99
-5.770179	aeronaves	-7.146054
-5.469149	aeropuerto	-7.763098
-6.372239	afecciones	-99
-4.682043	afecta	-9.632585
-6.372239	afectaba	-99
-4.828171	afectada	-99
-4.22302	afectadas	-99
-4.781174	afectado	-8.984909
-3.763713	afectados	-7.418808
-6.372239	afectados.600	-99
-6.071208	afectadosa	-99
-4.258296	afectan	-99
-5.116966	afectando	-7.761986
-4.781174	afectar	-99
-6.071208	afectaron	-99
-4.992027	afectará	-8.508616
-5.895117	afectarán	-99
-4.853725	afecte	-7.742791
-4.408451	afecten	-99
-6.372239	affected	-99
-4.940875	afgana	-7.222956
-4.925081	afganas	-99
-3.673269	afganistán	-7.313175
-6.372239	afganistán.571	-99
-6.071208	afganistáne	-99
-5.673269	afganistáns	-99
-5.673269	afganistánvéase	-7.988643
-4.867089	afgano	-7.725246
-6.372239	afgano-pakistaní	-99
-4.427756	afganos	-7.513894
-6.372239	afghanistan	-99
-5.594088	afiancen	-7.44986
-6.071208	afianzamiento	-99
-6.372239	afianzan	-99
-5.258296	afianzando	-7.859765
-4.359402	afianzar	-99
-6.071208	afianzarlas	-99
-6.372239	afianzará	-99
-5.770179	afianzaría	-99
-5.469149	afianzarían	-99
-6.071208	afianzándola	-99
-5.673269	afiliación	-7.97212
-5.527141	afiliada	-99
-4.880877	afiliadas	-7.193912
-5.895117	afiliado	-7.666447
-5.293057	afiliados	-99
-5.527141	afiliarse	-99
-5.770179	afinar	-7.294584
-5.673269	afines	-7.983349
-4.050019	afirma	-8.063668
-5.895117	afirmaba	-99
-6.372239	afirmación	-99
-6.372239	afirmado	-99
-6.372239	afirmados	-99
-5.770179	afirmamos	-7.295647
-5.258296	afirman	-8.555392
-4.229224	afirmando	-99
-6.372239	afirmar	-99
-5.770179	afirmara	-99
-5.895117	afirmaron	-7.645485
-5.895117	afirmativa	-99
-6.372239	afirme	-99
-6.372239	afirmen	-99
-6.071208	afirmó	-99
-6.372239	aflicción	-99
-5.594088	afligen	-99
-6.071208	afluencia	-7.444188
-5.330846	afrenta	-99
-6.071208	africa	-7.470566
-3.786778	africana	-99
-6.071208	africanaa	-99
-6.372239	africanaibíd	-99
-6.372239	africananaciones	-99
-5.330846	africanas	-7.51381
-5.770179	africanavéase	-99
-4.673269	africano	-7.914706
-4.311541	africanos	-99
-6.372239	africities	-99
-6.372239	afroasiática	-99
-5.527141	afronta	-99
-6.071208	afrontaban	-99
-4.957265	afrontan	-7.614318
-5.594088	afrontando	-7.489649
-4.728786	afrontar	-7.507031
-6.071208	afrontarse	-99
-6.372239	afronte	-99
-6.372239	afronten	-99
-6.372239	afs	-99
-5.594088	afán	-99
-5.594088	agencia	-7.452175
-5.594088	agencias	-99
-5.14179	agenda	-7.650537
-5.330846	agente	-7.592496
-4.261649	agentes	-7.744043
-5.417996	agilice	-7.846894
-5.330846	agilicen	-8.13971
-5.22611	agilizar	-99
-3.792455	agosto	-99
-5.330846	agotado	-9.664697
-6.372239	agotados	-99
-5.372239	agotamiento	-99
-6.071208	agotando	-7.469877
-6.071208	agotar	-99
-6.372239	agotarse	-99
-5.469149	agote	-9.631317
-6.372239	agoten	-99
-4.759455	agradece	-99
-6.071208	agradecida	-99
-5.14179	agradeciendo	-8.759652
-4.235518	agradecimiento	-7.734786
-4.199052	agrado	-99
-6.071208	agraria	-99
-5.895117	agrava	-99
-5.196147	agravada	-8.045334
-5.293057	agravadas	-99
-5.770179	agravado	-7.277192
-5.527141	agravados	-99
-5.895117	agravamiento	-99
-5.469149	agravan	-7.578228
-5.594088	agravante	-7.467555
-5.673269	agravantes	-7.966155
-5.14179	agravar	-8.508121
-5.673269	agravaría	-99
-6.071208	agrave	-7.459339
-5.594088	agraven	-99
-6.372239	agravios	-99
-6.372239	agredir	-99
-5.770179	agregadas	-99
-6.372239	agregue	-99
-6.071208	agreguense	-99
-5.417996	agresiones	-8.251493
-5.895117	agresivo	-99
-4.73877	agresión	-99
-6.372239	agresores	-99
-5.594088	agricultores	-7.446582
-4.079983	agricultura	-99
-6.372239	agriculturaibíd	-99
-6.071208	agriculturaorganización	-99
-5.527141	agroindustria	-99
-5.673269	agrupa	-99
-4.690998	agrupaciones	-99
-6.372239	agrupados	-99
-6.372239	agrupan	-99
-6.071208	agrupar	-7.471425
-6.372239	agruparse	-99
-6.071208	agréguese	-99
-4.770179	agrícola	-99
-4.728786	agrícolas	-7.98346
-4.2387	agua	-8.057598
-5.258296	aguarda	-99
-6.372239	aguardaba	-99
-5.770179	aguardando	-7.922946
-5.010511	aguas	-9.342568
-6.372239	aguavéase	-99
-5.895117	aguda	-99
-6.372239	agudiza	-99
-5.770179	agudizado	-99
-6.372239	agudizando	-99
-5.895117	agudizaría	-99
-6.372239	agudo	-99
-5.469149	ahg	-99
-4.497178	ahora	-7.195905
-5.116966	ahorro	-7.340175
-5.895117	ahorros	-7.634175
-6.372239	ahtisaari	-99
-5.770179	ahínco	-7.909475
-5.673269	ai	-99
-6.372239	aids	-99
-5.116966	aire	-99
-5.673269	aires	-7.971437
-6.372239	airesfccc	-99
-5.594088	aisladas	-99
-6.071208	aislado	-7.451546
-5.469149	aislamiento	-7.227291
-6.071208	ajena	-7.443563
-5.258296	ajenas	-99
-5.770179	ajeno	-99
-5.895117	ajenos	-99
-5.895117	ajusta	-99
-6.372239	ajustada	-99
-5.527141	ajustado	-99
-5.895117	ajustados	-99
-5.895117	ajustan	-99
-5.895117	ajustando	-7.645485
-5.168118	ajustar	-7.293594
-6.071208	ajustara	-99
-6.372239	ajustarlas	-99
-6.071208	ajustarlo	-99
-6.372239	ajustarlos	-99
-5.293057	ajustarse	-7.782785
-6.071208	ajustará	-99
-5.895117	ajustarán	-99
-5.895117	ajustarían	-99
-4.514906	ajuste	-99
-4.770179	ajusten	-10.48095
-4.709481	ajustes	-99
-5.895117	ajustándose	-99
-6.372239	ajustó	-99
-2.21575	al	-99
-5.770179	al-adha	-7.891022
-5.770179	al-amud	-7.447806
-6.372239	al-barid	-99
-5.770179	al-fitr	-99
-5.895117	al-khalil	-99
-5.770179	al-qaida	-99
-5.293057	al-quds	-99
-5.895117	alarma	-99
-4.552695	alarmada	-7.448472
-5.673269	alarmante	-7.636894
-6.071208	alarmantes	-7.4818
-6.372239	albaneses	-99
-4.594088	albania	-8.93468
-5.895117	albanés	-7.648584
-6.372239	albatros	-99
-6.372239	albergar	-99
-5.770179	albergue	-99
-5.594088	albores	-7.966413
-6.372239	alcalde	-99
-3.981304	alcance	-99
-5.168118	alcancen	-7.086801
-5.770179	alcantarillado	-99
-6.372239	alcanzada	-99
-5.469149	alcanzadas	-7.608493
-4.480144	alcanzado	-7.4532
-4.258296	alcanzados	-8.407558
-6.071208	alcanzando	-99
-3.777846	alcanzar	-99
-6.372239	alcanzarlos	-99
-6.372239	alcanzarlos.551	-99
-5.22611	alcanzarse	-8.964593
-6.372239	alcanzará	-99
-6.071208	alcanzó	-99
-5.527141	alcohol	-99
-5.527141	aldea	-99
-5.168118	aldeas	-7.344297
-5.895117	aledañas	-99
-6.372239	alegaciones	-99
-6.372239	alegar	-99
-6.372239	alegaren	-99
-6.372239	alegarse	-99
-6.071208	alegato	-99
-5.895117	alegatos	-99
-5.895117	alegue	-99
-6.372239	aleguen	-99
-5.895117	alejadas	-99
-6.372239	alejados	-99
-6.372239	alemana	-99
-4.503007	alemania	-9.70504
-6.071208	alentaba	-99
-4.867089	alentada	-99
-6.071208	alentado	-99
-5.527141	alentadores	-99
-5.673269	alentamos	-7.626228
-4.389967	alentando	-99
-4.190395	alentar	-99
-6.071208	alentara	-99
-6.372239	alentaran	-99
-6.071208	alentarlas	-99
-5.895117	alentaron	-99
-5.895117	alentarse	-99
-6.071208	alentarían	-99
-5.770179	alentándolas	-7.456047
-6.372239	alentándolo	-99
-6.071208	alentándolos	-99
-5.673269	alentó	-7.987528
-4.342855	alerta	-99
-4.880877	alfabetización	-8.073163
-6.071208	alfabetizaciónvéase	-99
-6.372239	alfabetizados	-99
-5.330846	alfabético	-99
-6.071208	algas	-99
-6.071208	algo	-7.480501
-6.071208	algodón	-7.444162
-6.372239	alguien	-99
-4.326916	alguna	-99
-4.095777	algunas	-7.76734
-4.781174	alguno	-7.797036
-3.845899	algunos	-99
-5.14179	algún	-7.547682
-6.372239	aliadas	-99
-5.895117	aliados	-99
-3.872552	alianza	-99
-6.372239	alianza.621	-99
-4.44282	alianzas	-99
-3.069259	alienta	-8.070677
-5.330846	alientan	-8.078571
-4.781174	aliente	-8.283701
-4.594088	alienten	-8.673251
-6.071208	aliento	-99
-3.988423	alimentación	-99
-5.895117	alimentaciónorganización	-99
-5.469149	alimentaciónvéase	-8.224881
-4.376604	alimentaria	-99
-5.196147	alimentarias	-7.409807
-6.071208	alimentarse	-7.454823
-6.372239	alimento	-99
-4.792455	alimentos	-8.046358
-6.372239	alineación	-99
-4.359402	alineados	-7.580642
-6.372239	alinear	-99
-5.594088	alistamiento	-7.955178
-5.594088	alistar	-7.474225
-5.770179	aliviando	-7.905668
-4.432719	aliviar	-99
-5.469149	alivien	-99
-4.664669	alivio	-8.248949
-6.071208	allanado	-99
-6.372239	allanar	-99
-6.071208	allegados	-99
-6.372239	allegue	-99
-4.700141	allá	-99
-4.853725	allí	-7.773877
-5.594088	almacenadas	-7.350928
-4.204921	almacenamiento	-99
-6.372239	almacenen	-99
-6.372239	almacén	-99
-5.050019	almaty	-99
-6.071208	almaty-tashkent-teherán-estambul	-99
-6.372239	almaty.582	-99
-6.372239	almaty.592	-99
-5.895117	almatya	-99
-6.071208	almatyibíd	-99
-5.895117	alojamiento	-7.644178
-6.372239	alpes	-99
-6.372239	alquilar	-99
-5.14179	alquiler	-7.72366
-5.770179	alquileres	-7.251369
-6.071208	alrededor	-99
-4.974298	alrededores	-8.738671
-3.923532	alta	-99
-4.719026	altamente	-8.27107
-4.792455	altas	-99
-6.372239	alteraciones	-99
-5.372239	alteración	-7.686386
-5.895117	alterado	-99
-6.372239	alterados	-99
-5.293057	alterar	-7.978458
-6.071208	alterarse	-99
-5.527141	alternativa	-99
-5.029816	alternativas	-7.282081
-4.759455	alternativo	-99
-5.050019	alternativos	-99
-6.372239	alterno	-99
-6.372239	alternos	-99
-3.318009	alto	-8.66965
-4.770179	altos	-99
-5.093485	altura	-99
-6.372239	alude	-99
-6.372239	aludes	-99
-6.372239	alusión	-99
-6.071208	aluvión	-99
-5.895117	alza	-7.62225
-6.372239	alícuota	-99
-6.372239	amalgamar	-99
-6.071208	amalie	-99
-4.190395	ambas	-99
-4.417996	ambiental	-99
-4.278817	ambientales	-99
-5.895117	ambientalmente	-7.677818
-3.642264	ambiente	-99
-6.372239	ambientea	-99
-6.372239	ambientedocumentos	-99
-6.071208	ambienteibíd	-99
-6.372239	ambientepublicación	-99
-5.895117	ambientes	-7.644192
-5.895117	ambienteunep	-99
-6.372239	ambientevéase	-99
-4.700141	ambos	-99
-6.372239	amenace	-99
-3.708538	amenaza	-99
-6.071208	amenazadas	-99
-5.895117	amenazado	-99
-5.093485	amenazan	-7.691591
-6.071208	amenazando	-99
-5.196147	amenazar	-99
-5.258296	amenazará	-99
-4.082204	amenazas	-99
-6.372239	amentar	-99
-5.22611	amerasinghe	-99
-4.719026	americana	-99
-6.071208	americanaa	-99
-5.895117	americanade	-99
-6.071208	americano	-7.443563
-4.74899	americanos	-99
-5.770179	americanosa	-99
-6.372239	americanosvéase	-99
-5.895117	amigos	-99
-6.372239	aminorar	-99
-4.258296	amistad	-99
-6.372239	amistosa	-99
-5.594088	amistosas	-7.480831
-6.071208	amnistía	-7.441785
-5.895117	amnistías	-99
-6.372239	amortizar	-99
-6.372239	amparados	-99
-6.372239	amparando	-99
-6.071208	amparo	-99
-6.071208	amparándose	-99
-3.777846	amplia	-7.849954
-4.53339	ampliación	-99
-5.22611	ampliada	-7.776406
-6.071208	ampliadas	-7.45288
-5.258296	ampliado	-99
-6.372239	ampliados	-99
-4.559325	ampliamente	-99
-4.781174	ampliando	-7.973931
-4.084437	ampliar	-99
-6.071208	ampliara	-99
-6.071208	ampliaran	-99
-6.071208	ampliaron	-99
-5.770179	ampliarse	-7.288847
-4.586909	amplias	-99
-3.823236	amplio	-7.51264
-6.372239	ampliopublicación	-99
-4.957265	amplios	-7.750219
-6.071208	amplitud	-7.459881
-5.594088	amplía	-99
-4.957265	amplíe	-7.974535
-4.853725	amplíen	-7.299159
-5.770179	amputaciones	-7.909252
-5.673269	amputación	-7.965646
-3.536548	américa	-7.886158
-5.330846	américas	-7.880397
-5.673269	analfabetismo	-7.61989
-5.673269	analfabetos	-7.956735
-5.258296	analice	-8.906647
-5.594088	analicen	-7.625617
-6.372239	analizaban	-99
-4.992027	analizando	-7.704466
-4.770179	analizar	-8.169988
-6.372239	analogía	-99
-5.293057	analítica	-99
-5.010511	analítico	-99
-5.770179	analíticos	-7.891022
-5.673269	anchas	-7.97035
-6.372239	ancianas	-99
-5.010511	ancianos	-8.14227
-5.258296	and	-99
-5.594088	andiján	-7.320217
-5.372239	andina	-7.726196
-5.050019	andorra	-99
-6.372239	anexen	-99
-5.010511	anexión	-7.690833
-3.147965	anexo	-99
-6.372239	anexoa	-99
-4.579847	anexos	-7.794058
-6.372239	anexosibíd	-99
-6.071208	anexoss	-99
-6.071208	anfetamina	-99
-5.372239	anfetamínico	-8.450759
-6.372239	anfitriona	-99
-4.815936	anfitriones	-7.524507
-4.093485	anfitrión	-99
-5.469149	anfitrióndocumentos	-99
-4.394515	angola	-7.741031
-6.071208	angolas	-99
-6.372239	angolavéase	-99
-6.372239	angoleñas	-99
-6.372239	angoleño	-99
-4.594088	anguila	-7.509705
-6.071208	anguilaa	-99
-4.940875	angular	-99
-6.372239	angulares	-99
-6.372239	anhelo	-99
-5.469149	animada	-99
-5.673269	animados	-7.959876
-6.372239	animal	-99
-6.071208	animales	-7.46654
-6.071208	animosidad	-99
-4.241905	aniversario	-99
-6.372239	aniversario.603	-99
-5.895117	aniversarios	-99
-6.071208	ankara	-7.448748
-5.895117	annan	-7.64132
-6.071208	annapolis	-7.458663
-5.372239	anomalías	-7.976498
-6.372239	anotado	-99
-6.372239	anotados	-99
-3.900947	ante	-7.995268
-6.372239	antecede	-99
-6.071208	anteceden	-7.477156
-6.372239	antecedente	-99
-5.116966	antecedentes	-8.41783
-5.22611	antelación	-99
-6.071208	antemano	-99
-5.372239	anteproyecto	-99
-4.719026	anterior	-8.572073
-3.808758	anteriores	-8.118844
-5.770179	anterioridad	-7.916431
-4.664669	anteriormente	-99
-6.372239	anteriormente.550	-99
-3.674138	antes	-99
-6.372239	anti-dumping	-99
-4.719026	antiaérea	-7.312769
-5.417996	antibalísticos	-99
-6.071208	antibalísticosnaciones	-99
-5.770179	anticipación	-7.924664
-5.770179	anticipada	-7.242768
-5.417996	anticipadas	-99
-6.071208	anticipado	-99
-6.071208	anticipados	-99
-5.770179	anticipar	-99
-5.673269	anticipo	-7.938039
-4.940875	anticipos	-7.936766
-6.372239	anticíclicas	-99
-5.527141	antidumping	-99
-4.974298	antigua	-8.133121
-5.673269	antiguas	-7.970388
-5.770179	antiguo	-7.305439
-5.258296	antiguos	-99
-6.071208	antigüedad	-99
-6.071208	antiincrustantes	-7.470558
-5.673269	antipalúdicos	-7.604542
-4.300357	antipersonal	-7.653089
-5.527141	antipersonalvéase	-99
-6.071208	antirretroviral	-7.472813
-5.372239	antisemitismo	-7.962119
-6.071208	antitabacalera	-99
-6.372239	antropogénicas	-99
-6.071208	antropogénico	-99
-5.770179	antropógenas	-99
-5.527141	antártico	-99
-6.071208	antárticonaciones	-99
-6.372239	antárticos	-99
-4.974298	antártida	-99
-4.010511	anual	-8.134213
-4.417996	anuales	-99
-4.664669	anualmente	-7.118248
-4.925081	anuario	-8.563853
-6.071208	anuencia	-7.439424
-5.770179	anula	-7.46875
-6.071208	anulación	-7.474288
-6.372239	anulada	-99
-6.071208	anulan	-99
-5.469149	anular	-7.479081
-6.372239	anularse	-99
-6.071208	anunciada	-99
-5.417996	anunciadas	-8.20584
-5.469149	anunciado	-7.48001
-6.372239	anuncian	-99
-6.071208	anunciaron	-99
-6.372239	anuncien	-99
-5.168118	anuncio	-7.634012
-5.469149	anuncios	-8.045465
-5.527141	anunció	-99
-6.372239	anádase	-99
-4.181907	análisis	-8.091729
-6.372239	análoga	-99
-5.673269	análogas	-7.560353
-6.071208	análogo	-99
-6.071208	análogos	-99
-5.895117	anónima	-99
-5.594088	ap.	-99
-6.071208	aparatos	-99
-6.372239	aparecen	-99
-5.673269	apareciendo	-7.946067
-6.372239	aparejada	-99
-6.372239	aparejadas	-99
-6.372239	aparejado	-99
-5.293057	aparejos	-7.553387
-5.895117	aparentar	-99
-6.372239	aparente	-99
-6.071208	aparentemente	-99
-6.071208	aparezca	-7.46945
-5.673269	aparezcan	-7.623516
-5.196147	aparición	-8.019398
-5.770179	apariencia	-99
-6.071208	aparta	-99
-5.673269	apartadas	-99
-3.8851	apartado	-99
-4.74899	apartados	-8.594077
-5.673269	aparte	-7.573263
-5.594088	apartheid	-99
-5.22611	apatridia	-99
-6.372239	apego	-99
-5.372239	apelaciones	-8.451368
-5.330846	apelación	-7.526967
-6.071208	apelaciónvéase	-99
-6.372239	apenas	-99
-6.372239	aperos	-99
-4.957265	apertura	-99
-6.071208	apia	-7.463969
-6.071208	aplaude	-99
-5.673269	aplaudiendo	-7.967497
-6.372239	aplaudimos	-99
-6.372239	aplazadas	-99
-5.770179	aplazado	-7.272855
-5.770179	aplazamiento	-7.1361
-5.196147	aplazar	-8.383261
-6.372239	aplazarse	-99
-6.372239	aplazará	-99
-5.330846	aplc	-99
-4.828171	aplica	-8.398991
-6.372239	aplicaban	-99
-4.728786	aplicabilidad	-99
-4.054175	aplicable	-99
-6.372239	aplicable.566	-99
-4.32302	aplicables	-99
-4.100397	aplicaciones	-7.683713
-2.777736	aplicación	-7.854118
-6.372239	aplicación.575	-99
-6.372239	aplicación.582	-99
-6.372239	aplicación.595	-99
-6.071208	aplicaciónibíd	-99
-6.372239	aplicaciónvéase	-99
-5.770179	aplicada	-7.157894
-5.196147	aplicadas	-7.249016
-4.974298	aplicado	-99
-5.469149	aplicados	-7.347641
-5.14179	aplican	-7.166911
-4.207886	aplicando	-7.876466
-3.498918	aplicar	-7.732914
-6.372239	aplicaran	-99
-5.527141	aplicarla	-99
-5.527141	aplicarlas	-99
-5.330846	aplicarlo	-7.685109
-6.071208	aplicarlos	-7.454823
-6.071208	aplicaron	-7.465862
-4.880877	aplicarse	-99
-4.909841	aplicará	-7.325137
-5.029816	aplicarán	-7.357461
-5.895117	aplicarían	-99
-6.372239	aplicase	-99
-6.372239	aplicándolas	-99
-5.372239	aplicándose	-8.473511
-4.229224	aplique	-7.785352
-3.886517	apliquen	-7.769979
-5.594088	apología	-99
-5.168118	aporta	-8.112971
-4.463754	aportaciones	-99
-4.566059	aportación	-99
-6.372239	aportada	-99
-5.168118	aportadas	-7.510256
-4.974298	aportado	-99
-5.673269	aportados	-7.618173
-4.586909	aportan	-7.626559
-4.992027	aportando	-99
-4.503007	aportar	-99
-6.071208	aportaran	-7.471504
-6.372239	aportaron	-99
-5.895117	aportará	-99
-6.372239	aportarán	-99
-6.372239	aportaría	-99
-6.372239	aportasen	-99
-4.895117	aporte	-7.289926
-4.417996	aporten	-99
-5.417996	aportes	-99
-6.071208	aportándose	-99
-4.389967	apoya	-99
-5.372239	apoyada	-99
-6.071208	apoyadas	-7.479173
-5.417996	apoyado	-99
-5.895117	apoyados	-99
-5.22611	apoyamos	-99
-5.330846	apoyan	-8.141811
-4.207886	apoyando	-99
-3.842039	apoyar	-99
-6.071208	apoyara	-7.471647
-6.071208	apoyaremos	-7.456774
-5.895117	apoyarla	-99
-5.330846	apoyarlas	-8.237552
-6.372239	apoyarlo	-99
-5.594088	apoyarlos	-7.9951
-5.417996	apoyaron	-8.143864
-6.372239	apoyarse	-99
-6.372239	apoyará	-99
-4.417996	apoye	-99
-4.082204	apoyen	-99
-3.051055	apoyo	-7.680159
-6.372239	apoyándola	-99
-5.895117	apoyándolo	-99
-5.417996	apoyó	-99
-6.372239	aprecia	-99
-6.071208	apreciable	-7.44418
-5.770179	apreciablemente	-7.908819
-5.895117	apreciables	-99
-5.469149	apreciación	-7.32737
-6.372239	aprecian	-99
-6.372239	apreciando	-99
-6.372239	apreciarse	-99
-5.330846	aprecio	-7.286099
-6.372239	aprehendido	-99
-6.372239	aprehensiones	-99
-5.469149	aprehensión	-8.057334
-4.895117	apremiante	-8.225551
-5.594088	apremiantes	-7.303961
-5.417996	aprendan	-99
-6.372239	aprenden	-99
-5.673269	aprender	-7.971219
-6.372239	aprendidas	-99
-4.940875	aprendizaje	-7.139385
-6.372239	apresuren	-99
-3.799367	aprobación	-7.471784
-6.372239	aprobacióna	-99
-3.287305	aprobada	-99
-3.926635	aprobadas	-99
-3.929759	aprobado	-99
-4.109787	aprobados	-99
-5.469149	aprobando	-8.219366
-4.474612	aprobar	-7.17131
-5.258296	aprobara	-7.560261
-6.372239	aprobarlo	-99
-5.258296	aprobaron	-99
-5.895117	aprobarse	-99
-6.071208	aprobará	-7.471721
-4.075573	aprobó	-7.887212
-5.372239	apropiación	-7.606286
-4.432719	apropiada	-99
-5.527141	apropiadamente	-99
-3.948993	apropiadas	-7.701039
-6.372239	apropiadas.553	-99
-6.372239	apropiadas.580	-99
-6.372239	apropiadas.592	-99
-6.372239	apropiadasibíd	-99
-4.300357	apropiado	-9.387349
-4.338815	apropiados	-99
-6.372239	apropie	-99
-6.071208	aprovecha	-7.466383
-6.372239	aprovechado	-99
-4.664669	aprovechamiento	-99
-5.895117	aprovechan	-7.644598
-4.895117	aprovechando	-99
-4.304053	aprovechar	-99
-5.895117	aprovechara	-99
-6.372239	aprovecharlas	-99
-6.372239	aprovechará	-99
-5.330846	aproveche	-7.414276
-4.957265	aprovechen	-8.155661
-6.372239	aproximada	-99
-5.469149	aproximadamente	-7.343225
-6.071208	aproximado	-99
-4.098081	aprueba	-99
-6.372239	aprueban	-99
-5.22611	apruebe	-7.513355
-5.258296	aprueben	-99
-6.372239	aptitud	-99
-4.895117	aptitudes	-7.497339
-5.770179	aptos	-99
-5.673269	apunta	-7.952839
-5.673269	apuntan	-99
-5.770179	apunten	-99
-5.895117	apátrida	-99
-5.050019	apátridas	-99
-4.53973	apéndice	-99
-6.372239	apéndices	-99
-6.372239	apéndices.621	-99
-6.372239	aquejan	-99
-5.770179	aquel	-7.918003
-5.469149	aquellas	-7.454802
-4.895117	aquellos	-99
-6.071208	aquiescencia	-99
-5.770179	aquél	-7.913322
-6.372239	aquélla	-99
-5.594088	aquéllos	-7.469162
-6.372239	aquí	-99
-6.372239	arabe	-99
-5.093485	arabia	-99
-5.673269	arancelarias	-7.598101
-6.071208	arancelarios	-7.454823
-5.372239	aranceles	-7.774006
-5.093485	aras	-99
-5.093485	arbitraje	-7.777158
-5.330846	arbitral	-8.283397
-5.372239	arbitrales	-7.793489
-6.372239	arbitrando	-99
-4.992027	arbitraria	-99
-5.293057	arbitrariamente	-99
-4.432719	arbitrarias	-8.187009
-6.071208	arbitrariasvéase	-99
-6.372239	arbitrario	-99
-5.258296	arbitrarios	-99
-6.372239	arbitre	-99
-6.071208	arbitrio	-99
-5.050019	arbitrios	-99
-6.372239	arbusto	-99
-6.071208	archipelágicas	-7.465549
-5.895117	archivada	-7.656497
-6.372239	archivar	-99
-4.828171	archivo	-8.430362
-6.372239	archivo.614	-99
-5.050019	archivos	-99
-6.372239	ardua	-99
-6.071208	arduo	-99
-5.071208	argel	-7.363759
-4.815936	argelia	-7.927163
-4.453161	argentina	-8.102475
-6.071208	argumentaciones	-99
-6.372239	argumento	-99
-6.372239	argumentos	-99
-6.372239	aritmética	-99
-6.372239	arma	-99
-4.895117	armada	-7.589884
-4.673269	armadas	-99
-4.474612	armado	-7.431061
-6.071208	armadoibíd	-99
-5.527141	armadonaciones	-99
-6.071208	armadores	-99
-3.851101	armados	-99
-5.594088	armadosa	-99
-6.071208	armadosibíd	-99
-6.372239	armadosnaciones	-99
-5.527141	armadosresolución	-99
-5.770179	armadosvéase	-7.916761
-6.071208	armamento	-99
-3.691903	armamentos	-99
-2.873239	armas	-99
-5.594088	armasibíd	-99
-6.071208	armasvéase	-99
-4.53339	armenia	-99
-6.372239	armisticio	-99
-5.770179	armonice	-7.918437
-6.071208	armonicen	-7.464939
-6.372239	armoniosa	-99
-5.770179	armoniosas	-7.278772
-6.071208	armonioso	-7.42751
-4.53973	armonización	-99
-6.372239	armonizada	-99
-6.372239	armonizadas	-99
-5.770179	armonizado	-7.139344
-5.594088	armonizando	-7.456414
-4.925081	armonizar	-99
-4.682043	armonía	-99
-6.372239	arms	-99
-6.372239	armónicas	-99
-6.372239	armónico	-99
-6.372239	arqueología	-99
-6.372239	arqueológica	-99
-5.770179	arqueológico	-7.906761
-6.372239	arqueológicos	-99
-4.992027	arquitectura	-99
-6.071208	arraigo	-99
-6.372239	arrastres	-99
-5.895117	arrecife	-99
-5.010511	arrecifes	-99
-5.770179	arreglados	-99
-6.372239	arreglar	-99
-5.770179	arreglaran	-99
-6.372239	arreglarán	-99
-6.372239	arreglen	-99
-3.466443	arreglo	-9.407548
-3.887939	arreglos	-99
-5.469149	arrendamiento	-7.715807
-6.372239	arrendar	-99
-5.050019	arresto	-99
-5.673269	arrestos	-7.947417
-5.093485	arriba	-7.422098
-5.895117	arriesgado	-99
-6.372239	arriesgan	-99
-6.372239	arrojar	-99
-5.895117	arroje	-99
-5.673269	arrojó	-7.96368
-5.469149	arroz	-7.458624
-4.770179	arsenales	-7.891223
-5.469149	art	-7.46944
-5.673269	arta	-7.962517
-5.895117	arte	-99
-4.673269	artefactos	-8.695373
-5.372239	artemisinina	-7.446829
-6.372239	arterias	-99
-5.895117	artes	-7.644195
-6.071208	artesanal	-99
-5.895117	artesanales	-99
-6.372239	articula	-99
-6.372239	articulada	-99
-5.895117	articulen	-99
-5.673269	artillería	-8.017789
-6.372239	artistas	-99
-3.090751	artículo	-7.769077
-3.929759	artículos	-8.15788
-6.372239	artículos.626	-99
-6.071208	artículosibíd	-99
-5.895117	aruba	-99
-6.372239	arvid	-99
-2.649276	asamblea	-99
-6.071208	asambleas	-99
-4.925081	ascendencia	-8.288849
-6.372239	ascendente	-99
-6.372239	ascender	-99
-5.895117	ascenderá	-99
-6.372239	ascenderían	-99
-6.071208	ascendiendo	-99
-6.071208	ascenso	-7.463969
-5.330846	ascensos	-7.869591
-4.974298	asciende	-99
-5.673269	ascienden	-99
-6.071208	asean	-7.479597
-5.895117	asedios	-7.634772
-6.372239	asegura	-99
-5.770179	asegurado	-7.1253
-4.631876	asegurando	-8.203891
-3.566059	asegurar	-99
-5.594088	asegurara	-99
-4.895117	asegurarse	-99
-6.372239	asegurará	-99
-5.527141	asegurarán	-99
-6.372239	aseguraría	-99
-4.0398	asegure	-99
-4.334812	aseguren	-99
-6.372239	asegurándole	-99
-6.071208	asegurándose	-99
-6.372239	aseguró	-99
-4.828171	asentamiento	-8.054896
-3.940875	asentamientos	-7.918498
-5.372239	asentimiento	-8.87813
-5.594088	asequible	-7.984891
-5.594088	asequibles	-99
-5.770179	asesinadas	-99
-6.372239	asesinado	-99
-5.895117	asesinados	-99
-6.372239	asesinar	-99
-5.372239	asesinato	-7.943926
-5.293057	asesinatos	-7.728153
-4.656235	asesor	-99
-4.728786	asesora	-7.663261
-4.088937	asesoramiento	-8.523335
-4.992027	asesorar	-8.565965
-5.770179	asesore	-7.290599
-5.071208	asesores	-7.383994
-6.372239	asesores.573	-99
-5.770179	asfixiantes	-99
-3.969118	asia	-7.748576
-6.372239	asiento	-99
-4.867089	asigna	-7.595691
-5.196147	asignaciones	-7.594242
-4.403756	asignación	-7.761118
-5.196147	asignada	-8.401334
-5.116966	asignadas	-7.694548
-5.116966	asignado	-99
-5.168118	asignados	-7.649791
-6.372239	asignamos	-99
-5.258296	asignan	-8.569076
-4.925081	asignando	-99
-4.770179	asignar	-99
-6.372239	asignarlas	-99
-6.071208	asignarlo	-99
-5.469149	asignarlos	-8.210447
-5.417996	asignarse	-8.144942
-6.372239	asignará	-99
-4.895117	asigne	-7.512903
-4.690998	asignen	-7.636489
-5.116966	asignándoles	-7.987938
-5.330846	asignó	-8.149636
-4.53339	asilo	-99
-6.372239	asilo.610	-99
-6.372239	asilo.623	-99
-5.895117	asimetrías	-99
-6.071208	asimilación	-7.480846
-6.372239	asimiló	-99
-4.275329	asimismo	-99
-6.071208	asista	-99
-5.14179	asistan	-99
-6.071208	asisten	-99
-2.842167	asistencia	-99
-6.372239	asistenciaa	-99
-6.372239	asistenciaorganización	-99
-6.372239	asistenciawww.un.org	-99
-5.895117	asistente	-99
-6.071208	asistentes	-7.475282
-6.372239	asistida	-99
-5.895117	asistiendo	-99
-6.372239	asistieron	-99
-4.828171	asistir	-8.460161
-5.770179	asistirlos	-99
-5.895117	asistirán	-99
-5.673269	asiática	-7.947417
-5.673269	asiático	-99
-5.258296	asiático-africana	-8.066713
-6.372239	asiático-africanaa	-99
-6.372239	asiático-africanavéase	-99
-5.770179	asiático-africano	-7.162099
-6.372239	asiático-africanoa	-99
-5.895117	asiáticos	-99
-4.248387	asociaciones	-99
-3.93767	asociación	-99
-6.071208	asociaciónvéase	-99
-6.071208	asociada	-7.467084
-4.804037	asociadas	-7.723182
-3.983073	asociado	-9.261913
-6.372239	asociado.550	-99
-6.372239	asociadoa	-99
-6.372239	asociadodocumentos	-99
-5.673269	asociadoibíd	-99
-5.770179	asociadonaciones	-99
-5.673269	asociadoresolución	-99
-4.003023	asociados	-8.811146
-6.372239	asociar	-99
-6.372239	asociarse	-99
-5.895117	asocie	-99
-5.895117	asocien	-99
-5.14179	asolado	-99
-5.673269	asolados	-99
-4.925081	aspecto	-99
-3.687393	aspectos	-99
-5.372239	aspectosa	-99
-4.376604	aspiraciones	-99
-4.925081	aspiración	-99
-6.372239	aspiran	-99
-6.372239	aspirar	-99
-5.895117	aspire	-99
-6.372239	aspiren	-99
-6.372239	ass	-99
-5.770179	assembly	-99
-6.372239	association	-99
-6.372239	astana	-99
-5.770179	astronomía	-7.278381
-5.895117	astronáutica	-99
-6.372239	astronómica	-99
-6.071208	astronómicas	-7.477116
-5.22611	asuma	-7.944502
-5.895117	asuman	-7.633078
-6.071208	asumen	-7.470171
-6.071208	asumida	-7.478086
-6.372239	asumidas	-99
-5.071208	asumido	-7.432713
-4.867089	asumidos	-7.882411
-5.594088	asumiendo	-7.465124
-6.372239	asumiera	-99
-6.372239	asumieron	-99
-5.050019	asumir	-99
-5.895117	asumirá	-99
-6.372239	asumirán	-99
-5.673269	asumiría	-99
-5.673269	asumió	-7.611242
-5.293057	asunción	-99
-4.815936	asunto	-99
-6.372239	asunto.590	-99
-6.372239	asunto.600	-99
-6.372239	asunto.610	-99
-6.372239	asunto.620	-99
-3.361939	asuntos	-99
-6.372239	asuntos.580	-99
-6.372239	asuntovéase	-99
-2.917242	así	-8.363913
-6.071208	atacar	-7.472514
-6.372239	atambúa	-99
-5.258296	ataque	-99
-4.300357	ataques	-8.243781
-5.469149	atañe	-8.223372
-5.469149	atañen	-8.221393
-5.673269	atenas	-7.621238
-3.569465	atención	-99
-6.372239	atención.565	-99
-4.008627	atender	-99
-5.673269	atenderlas	-7.981043
-5.770179	atenderlos	-7.90684
-5.673269	atenderse	-7.982778
-6.372239	atenderá	-99
-6.372239	atendida	-99
-5.895117	atendidas	-99
-5.417996	atendido	-8.146173
-6.372239	atendidos	-99
-4.940875	atendiendo	-7.762176
-6.372239	atendió	-99
-5.417996	atenerse	-8.155334
-6.071208	atenga	-99
-5.673269	atengan	-7.624705
-5.594088	ateniéndose	-7.996622
-5.469149	atenta	-8.225457
-5.673269	atentado	-7.633278
-5.196147	atentados	-7.096407
-5.196147	atentamente	-8.095864
-6.372239	atentan	-99
-5.895117	atentar	-99
-5.594088	atente	-8.010436
-5.330846	atenten	-99
-6.071208	atento	-99
-6.372239	atenuación	-99
-6.372239	atenuantes	-99
-5.527141	atenuar	-99
-6.372239	atenúe	-99
-5.895117	atestigua	-99
-5.594088	atienda	-7.467421
-5.029816	atiendan	-7.395237
-6.372239	atiende	-99
-6.372239	atienden	-99
-6.372239	atinentes	-99
-5.594088	atletas	-7.984126
-6.071208	atlántica	-99
-4.853725	atlántico	-99
-6.071208	atléticas	-99
-5.770179	atmosférica	-99
-5.372239	atmósfera	-7.716893
-6.372239	atraco	-99
-6.372239	atractiva	-99
-6.372239	atractivo	-99
-6.071208	atractivos	-99
-5.071208	atraer	-7.801432
-6.071208	atraiga	-7.450051
-5.673269	atrasadas	-7.599359
-6.071208	atrasado	-7.465862
-5.116966	atrasados	-99
-4.880877	atraso	-9.040671
-6.071208	atrasos	-7.431913
-6.071208	atravesó	-99
-5.770179	atraviesa	-7.907282
-6.372239	atraviesan	-99
